a -0.13772161 0.015976487 0.1448233 -0.014820235 -0.005944597 -0.063067585 0.1227003 -0.04450307 0.045066357 -0.010399278 -0.12441721 0.023901274 0.11535201 -0.109429546 0.001230812 -0.15541823 0.09324355 0.21092875 0.038959123 0.0412941 -0.014455286 0.155142 0.13166893 -0.07988259 0.048524022 0.07983418 0.1706974 -0.021773148 -0.0010504758 0.06451238 0.12720448 -0.0224765 -0.074897826 -0.27020636 0.014366433 0.039904132 0.089091316 0.10247952 -0.03102834 -0.0019217973 0.07494702 0.09297571 -0.12557131 -0.13016574 0.1919814 0.09558146 0.10473084 -0.054550666 0.03757528 -0.13102704 -0.19527493 -0.07841173 0.083061226 0.050640568 0.021260956 -0.09593061 -0.037049044 0.021871831 -0.04155532 -0.23428851 -0.041467987 -0.0643122 0.10437218 -0.0080043925 0.09157468 -0.01147205 0.07132491 0.10619039 0.048049323 -0.11249065 0.075512916 -0.043178663 0.12832297 -0.009131923 0.034578573 -0.061164897 0.09250112 0.0499957 -0.2593642 -0.055335816 -0.089344546 0.044037428 -0.07652626 -0.041876152 0.1224213 -0.11008157 0.056575704 -0.14243115 0.06651546 -0.024222912 0.036076665 -0.057641733 -0.055246383 -0.14456835 -0.16470626 0.031578235 -0.20273839 -0.092189826 -0.11658001 -0.0017968805
np -0.060519293 0.18364589 -0.00671012 -0.16632138 -0.032443073 -0.0925635 0.080950744 0.091845736 0.033417866 -0.029581247 -0.04938593 0.095770985 0.09314083 0.017526498 -0.04506334 -0.03927077 -0.05519582 0.055263735 0.089496285 0.050772946 -0.019131308 0.046665803 -0.043220855 -0.045482475 0.08872619 0.08263178 0.08572014 -0.057694323 0.011394143 -0.00012524913 0.1442184 -0.0156088425 -0.22594133 0.054690175 0.010677255 0.00033075956 0.0147116715 -0.04076471 -0.008517649 -0.13169004 0.10207455 -0.102379784 -0.03278982 -0.052239295 0.010461024 -0.1683195 -0.01782163 -0.126416 -0.041770343 -0.13971479 -0.24943586 -0.11466267 0.004101905 0.109878995 -0.00782752 0.11266613 0.055420533 0.07546114 0.0041233217 -0.09465313 0.13286981 -0.005318409 -0.042949945 -0.02398149 -0.12839964 -0.0887147 -0.074497715 0.086753465 0.07768236 -0.074448176 -0.07471135 -0.040171802 -0.001705521 0.14672124 0.263338 0.13474062 -0.101578996 0.15980195 0.08327691 0.12207451 -0.16022845 -0.13571566 0.2654879 0.08856407 -0.091939285 0.18237233 0.060105294 -0.047741655 0.043038 -0.084851995 0.0010803981 -0.020604799 -0.085743465 -0.07591917 0.06508444 -0.12089933 -0.049941923 -0.15834537 -0.07460893 0.21135902
fp -0.06007127 0.1759545 0.044963695 -0.19142073 -0.042665746 -0.086079925 0.09807214 0.07563869 0.032675043 -0.013830998 -0.07290932 0.090825744 0.10335343 -0.02767547 -0.06415453 -0.07211453 -0.09622534 0.0014178427 0.07221304 0.044060137 -0.03495527 0.027320229 -0.032130457 -0.05649615 0.07820601 0.09276512 0.058830883 -0.08130081 -0.012258569 -0.014624 0.11773707 -0.014730604 -0.14419763 0.12121876 0.00036562225 0.010908043 0.015091348 -0.015439943 -0.033156287 -0.14205246 0.08167181 -0.08528137 -0.035878167 -0.012236946 0.0451931 -0.117960304 -0.011268897 -0.12528804 -0.08685229 -0.15326414 -0.23575641 -0.090459 0.0077573042 0.09413358 -0.05302818 0.11666499 0.059590448 0.040907763 0.012144439 -0.08174668 0.16917063 0.00951825 -0.023342617 -0.050203584 -0.17852591 -0.07580492 -0.04842434 0.051077988 0.04037415 -0.0789396 -0.09512658 -0.07355075 0.06326809 0.1389414 0.28818896 0.16762963 -0.09252976 0.1366746 0.06447617 0.18189655 -0.1417062 -0.13752298 0.29379892 0.005077042 -0.127934 0.11883514 0.046080325 -0.031011112 0.063503504 -0.063119315 0.01865691 -0.025067493 -0.033616558 -0.0888514 0.05729022 -0.06132983 -0.042997688 -0.15642399 -0.06613715 0.24037862
serve -0.005418882 0.15000689 -0.09756792 -0.017536208 -0.0005090107 -0.15303059 0.29630384 -0.09866754 0.07421117 0.0064610094 -0.09821302 0.044612266 0.040909152 -0.011015607 -0.09756973 -0.061812475 0.07509264 0.19983622 0.092869125 0.029457297 -0.05577762 -0.053744778 -0.008773734 -0.041791923 -0.006887125 0.03044915 -0.041815944 -0.08599913 0.058889713 0.17917904 -0.08017303 -0.12492775 -0.19546212 0.01937415 -0.050281692 0.07099634 -0.0015323139 0.075564295 0.07648347 0.028340066 0.13236164 0.16027954 -0.072464846 0.0798456 -0.18282215 0.09637899 0.034711324 -0.16709705 0.12845768 -0.042417247 -0.008957184 0.0032611375 0.105859555 0.013891511 -0.22818357 0.0316256 0.0033937872 -0.030555347 -0.033212803 -0.14053765 -0.07274024 -0.108571395 0.0026605572 -0.019341119 -0.2489955 0.0133990785 0.1135784 0.16234814 -0.12803493 0.062245697 0.059382796 0.17443517 0.09691989 0.0051740897 -0.069250554 0.13709581 0.22770679 0.23787959 0.0643566 0.10248595 -0.0018137968 -0.02768717 -0.011126655 0.0021632786 -0.05901113 0.15033808 0.053060554 -0.049505584 0.050709296 0.00623622 -0.01640862 0.1133058 -0.016433349 -0.04438134 -0.106573224 0.0042891726 -0.043087266 -0.023090012 -0.009780773 0.025108593
the 0.002824403 -0.1268465 0.0426591 -0.08312688 -0.003262362 -0.13441798 0.008693579 -0.026416779 0.019027986 0.089805484 0.1817675 0.07814997 -0.013788703 -0.046247195 -0.06306926 -0.003846562 0.23529226 -0.051572926 0.08454817 0.053786445 -0.040041815 0.043976024 0.1654967 -0.013962212 -0.0026504886 -0.010400348 0.074190855 0.027648192 0.25162727 0.3161885 0.096896775 -0.20033091 -0.07778027 -0.22388326 0.0054224753 -0.043653037 0.03066898 0.05116282 -0.16096658 -0.1413105 -0.005978207 -0.01260587 0.013834615 0.029878259 -0.02647904 0.2030966 0.028089885 0.019450534 -0.011308829 0.07504708 0.086270794 -0.050558906 0.0088553075 0.041036565 -0.028755799 -0.09686793 0.02130717 -0.11916135 -0.07508154 0.0032205076 -0.013525969 0.12254538 -0.034425095 -0.12023221 -0.15546586 -0.21111451 -0.11265559 0.020707684 0.09481756 -0.0734579 0.14028496 -0.041109536 -0.005579821 0.12813415 0.11336448 -0.018177904 0.1696487 -0.049587782 -0.03725236 0.19602536 0.101456694 -0.16450354 0.0039254697 -0.025101831 -0.13373852 0.11186852 0.018882038 0.0056255944 0.010496493 -0.095804915 0.01691049 0.042517453 0.06059243 0.05214723 -0.0640609 0.10846872 0.041744377 -0.06725096 0.023006165 0.16031757
return -0.160764 0.08004434 0.10216285 -0.14775531 0.0009150773 -0.026738657 0.0033452732 -0.062398948 0.093715474 -0.0037036517 -0.030791637 -0.026572315 0.16074787 0.10148816 -0.14687835 0.22336279 0.056862533 0.07118649 -0.013314252 0.053051207 -0.08786458 -0.031518955 0.19290745 -0.0933045 0.028810313 0.12169281 0.027047053 0.09794843 0.047905758 -0.021131715 0.017306615 -0.09157844 -0.070106745 -0.09003611 0.008207104 -0.014029361 -0.09074669 -0.05622906 -0.06330811 -0.19570853 0.03393615 0.07050927 -0.025283985 -0.17484926 -0.1866826 0.0153354155 0.00027203036 -0.01873121 0.0042805336 -0.06020377 0.02900879 -0.09312553 0.06829079 0.0939943 0.059008803 -0.14434214 -0.036462225 -0.08734971 -0.004663168 0.10294997 0.1351251 -0.112874396 0.009338067 -0.05480904 0.044031937 -0.21037798 -0.09627092 0.14573948 -0.168615 -0.23991509 0.08009189 0.09537306 -0.030825803 0.016458826 0.12028301 0.07607996 -0.033696275 0.20890266 -0.059591603 0.13493252 -0.19311179 -0.12791845 0.122475155 0.08617949 -0.062154256 0.059501674 0.021137996 -0.0777953 0.10065333 0.017735096 0.008981686 -0.121974155 0.026121799 -0.09122169 -0.03536935 0.056579277 -0.12574072 -0.20019592 -0.0010709194 0.11886026
ls -0.14163575 0.038043626 0.04136206 -0.087362535 -0.015633626 -0.07137341 -0.09279254 -0.06815066 0.13891934 0.10845194 -0.19796859 0.042842314 0.09859168 -0.11444607 -0.08087115 0.25299498 0.06965594 0.12162533 0.094776876 0.046505094 -0.03393393 0.094720684 0.1280844 -0.06972617 0.038994133 0.068134464 0.13186246 0.14983617 0.076411225 0.010672962 0.1469196 -0.004906723 0.08836 -0.17187962 -0.0014994167 -0.023830406 0.058630828 0.10351915 -0.0014522236 0.025716512 0.14009006 0.18549596 -0.113354415 0.026382942 -0.20861839 -0.012135083 0.042134337 0.23726875 0.10383374 -0.123261414 -0.1494231 -0.0901579 0.10048584 0.051942494 -0.034082092 -0.1861297 -0.040186785 -0.06069512 -0.10331836 0.06676253 -0.06520687 0.12648301 0.017653268 -0.058240063 -0.07279179 -0.042993437 -0.011685423 -0.03696472 -0.0054423134 -0.05289226 0.10218008 0.016414836 -0.0124757085 0.07666387 0.0723228 0.046318185 0.047097947 -0.015231196 -0.12359887 0.119823165 -0.12643208 -0.023132185 0.0527136 -0.16940899 -0.024142412 -0.03102662 0.14039563 -0.07062758 0.05587259 0.04492008 -0.001741011 0.0029100466 0.08058166 -0.107944794 -0.19503416 -0.23890653 -0.10220266 -0.0036916414 -0.07884973 0.02956225
rs -0.13478732 0.008969239 0.041569505 -0.10671093 0.0048791063 -0.09812801 -0.0841666 -0.114880614 0.08921268 0.119430676 -0.26969802 0.0438731 0.062345996 -0.110982366 -0.062085383 0.27354154 0.06618239 0.1263524 0.10806046 0.03405729 -0.028291557 0.077544846 0.08771884 -0.08967488 0.046370376 0.078324355 0.1466929 0.139062 0.032539885 0.0238278 0.07500076 0.017349217 0.06920405 -0.19431758 -0.033217337 -0.0011096322 0.027920282 0.07194905 0.06458673 -0.058971122 0.09812688 0.16123816 -0.07616827 0.12843281 -0.22176819 0.04333815 0.058507487 0.08816349 0.08752265 -0.12273809 -0.108318515 -0.109171085 0.061504956 0.08549446 -0.07713627 -0.15550281 -0.012598389 -0.062131632 -0.0818024 0.12078167 -0.07924031 0.14215761 0.003320563 -0.053796057 -0.06336192 -0.053883996 0.023730481 0.16212776 0.034340963 -0.07893083 0.13464737 1.5160774e-05 0.017336195 0.03442676 0.097183675 0.019505974 0.031824246 -0.03723191 -0.14342584 0.11552628 -0.17084253 -0.042621303 0.026925646 -0.21290371 0.032558445 -0.0004021973 0.059618343 -0.11714318 0.04677362 0.03759974 -0.01688945 0.061831053 0.105833896 -0.102904126 -0.18627968 -0.16353494 -0.09723659 0.040678833 -0.10133129 0.011444691
good -0.06213893 0.049054407 0.070411615 0.034526065 -0.053468835 0.13754351 0.07611364 -0.066691756 -0.037602667 0.019876957 0.15462689 -0.025813002 0.085896276 -0.07398618 0.0069399513 -0.059418596 0.054869648 0.05548705 -0.082500875 -0.009947343 -0.019530883 0.061870698 0.02311819 -0.040080395 0.034410235 -0.01831684 0.04256327 0.1934703 0.08540371 0.12140549 0.03043699 -0.0664844 -0.14696439 -0.107037224 -0.10505122 -0.12841468 0.027292766 0.02149933 -0.10478358 -0.019017681 0.2472303 0.08870897 0.066361025 -0.17077962 -0.11811341 0.2602623 -0.00038506198 -0.123284854 -0.0051146215 -0.10048955 -0.0029734392 -0.005551929 0.024153642 0.007215726 -0.097539745 -0.08006035 0.041424256 0.043535896 -0.009554165 -0.052410204 0.1804235 0.20682341 0.019100714 0.010332704 -0.15953605 -0.076009735 -0.040382795 0.07015846 0.17244902 -0.21087055 0.07861492 -0.12536897 0.014067006 -0.00027775211 0.060325187 0.12230208 0.03214781 0.06576912 -0.06540124 -0.08990575 -0.015791714 0.012001152 0.1282191 -0.22755949 -0.069037795 0.1257795 -0.040832642 -0.10755671 0.012270971 -0.12131004 -0.01226864 -0.03627644 -0.17586069 -0.108657084 -0.29183903 -0.10270218 -0.046038426 -0.09461616 0.06270461 -0.0329344
rally -0.07480434 -0.020040315 -0.07124988 -0.11581327 -0.07633173 -0.11024543 0.13836454 -0.16168916 0.00616866 0.0818687 -0.029229594 0.06392792 0.07529826 0.072761364 -0.058205985 0.10874204 0.029220479 0.1201212 0.022171887 0.025782298 0.020111708 -0.06435697 0.019388111 -0.052078106 0.027365409 0.040840052 0.110406935 0.10955619 0.0036659257 -0.14889269 0.094212346 0.08224873 -0.16058303 -0.052002423 0.011229399 -0.12833042 -0.095351346 -0.08122432 -0.13004808 -0.116069175 0.119081914 0.08533888 0.0014725215 -0.14099574 -0.06757628 0.104618296 -0.10383387 0.049986314 0.041560978 -0.20440206 -0.06572258 0.016643785 0.051424384 0.031598356 -0.07764354 -0.13840184 0.10200112 -0.011236342 -0.021189876 -0.06869335 -0.03130784 -0.041632492 -0.15691568 0.04937105 0.05659253 -0.2524491 -0.08358499 0.18737818 -0.05070225 -0.14367644 0.16675775 0.08668172 0.086256266 0.123103656 0.07548017 0.15155526 -0.057162635 0.15332526 -0.022367131 0.15520355 -0.14502208 -0.008191541 -0.22673517 -0.22882333 -0.059659358 0.016034422 0.10177298 -0.15488032 -0.022017496 0.06965708 -0.04900065 -0.030869115 -0.13545172 -0.10110785 -0.024350353 0.026641052 -0.043541934 -0.13722073 -0.010980764 0.09772951
to -0.14752838 0.022260139 -0.027340537 -0.005821698 0.17480473 0.0072553223 0.0061938865 -0.13094565 -0.005121355 0.08945123 -0.05557595 0.045207746 0.1496252 0.11971618 0.003194904 0.008551672 0.047444806 -0.084402606 0.098758206 0.013589813 0.020487806 0.037022483 0.06378645 -0.06837899 -0.015108719 -0.042765286 0.16492358 0.19724487 0.022939347 0.12340357 0.076067984 0.031112926 0.01774107 -0.018661954 0.1559555 -0.2732748 0.10747775 0.037818823 -0.06587039 -0.09054171 -0.17299408 0.010838253 0.058549363 -0.21150124 -0.15593047 -0.07303759 0.046308104 -0.038785968 -0.0065223463 -0.11511531 -0.16212274 -0.003822472 -0.0067849923 -0.0056450153 -0.20542496 -0.06897572 0.23903571 0.04188002 -0.056750946 0.03927811 -0.004375735 -0.013394948 -0.2799529 -0.06544941 0.0042701163 -0.11995492 -0.18874782 -0.09929066 0.03074485 0.10202475 0.19294237 0.011934878 0.0064668395 0.041685324 0.05091487 0.17181721 0.13547248 -0.009131748 0.06681992 -0.010821185 -0.10540925 0.005968078 0.02159572 0.034088295 -0.06319671 -0.06819619 0.045132104 -0.06712635 -0.03393098 0.020164764 -0.17153895 0.11414624 -0.07900524 -0.10398454 -0.0897299 -0.0383332 -0.14500369 -0.04782935 0.00957584 0.03707824
it -0.14084741 0.048483495 0.071645975 0.01636594 0.12842599 0.04143672 0.07015556 0.0734012 0.0872267 -0.014179682 -0.19411379 -0.11522898 0.10022568 0.15265182 0.022307178 0.12739256 -0.0030513615 0.0021114333 -0.045845255 -0.021634392 -0.077602655 0.04642946 -0.103868805 0.007272006 0.0969499 0.119508825 -0.12656021 0.11605844 0.0043593473 0.0719871 -0.06847346 -0.14341138 0.11037271 -0.015513178 0.09238224 -0.1383276 0.087587 0.043628216 -0.15235773 -0.042633783 0.016415399 0.19443814 -0.1463198 -0.038895205 -0.17019053 -0.014062052 0.07122233 0.17090888 0.0052479417 -0.16445614 -0.16347374 0.095400356 0.05687338 -0.07789698 -0.21146503 -0.088567235 0.07745015 0.040394764 0.015456601 0.00045850774 0.045165136 0.037160452 -0.086212896 -0.07543581 -0.1622639 -0.18982719 -0.0769342 -0.032942384 0.062674426 0.07878291 0.19011444 -0.010096987 0.08863768 -0.047051914 0.06888323 0.11917576 0.10757568 0.11393495 0.05275242 -0.0037251655 -0.13921048 -0.10052057 0.044973776 -0.121999085 -0.04595099 0.09653573 0.07676737 -0.094963215 0.06882949 -0.10865343 -0.14171094 0.043178145 -0.020768842 -0.122906774 -0.14640208 -0.05180473 -0.096471794 -0.17241845 -0.13774917 0.022393255
winner -0.05269206 -0.002879546 0.17075548 -0.16214013 0.110053614 -0.07964816 0.07711721 -0.15229264 0.15220965 0.15421084 -0.15406476 0.09578427 0.0061396165 -0.0041588945 -0.15540367 0.035424057 0.110716 0.12686226 0.08162036 0.09974341 -0.09602287 0.11923235 0.12202489 -0.12576766 0.11233481 0.11185585 0.09580491 0.20651631 0.06435626 0.029437054 0.12222034 0.099709146 0.068218715 -0.08454656 0.12487791 -0.11981597 -0.0016228596 0.11160688 -0.10643444 -0.033975143 0.11893746 0.029201735 -0.083891176 -0.1327525 0.08193537 -0.06234428 0.039338917 -0.15030542 0.13205394 0.018112307 -0.061118126 -0.13252713 0.1372438 0.11977854 -0.018016517 -0.023551308 0.120457806 -0.21159117 -0.104271635 -0.062436927 -0.050238468 0.071939796 -0.07009699 -0.046908867 0.008135255 0.017698307 -0.11510011 0.14969999 -0.004385797 -0.12944141 0.12972513 -0.006095651 0.08880744 0.056375626 0.13343674 -0.122389756 0.037118778 0.15504237 -0.06254601 0.0866005 -0.04279208 -0.00038448084 0.0223461 -0.12225046 -0.02317897 -0.06951686 0.13495833 0.024639254 0.12069706 -0.08326376 -0.10585989 -0.039267577 -0.053527217 0.0013776522 -0.16233732 -0.08025114 -0.04483596 0.090183124 -0.07929881 0.040646065
in -0.047418658 -0.08045836 -0.03623576 -0.031079508 -0.08890099 -0.0485182 0.22012514 0.07567288 -0.044796724 0.11375983 0.033966597 0.0134179825 0.0019708194 -0.015387259 0.046650827 -0.08221107 0.13568334 0.049170796 -0.017088229 0.041992296 0.032974068 -0.0029580877 -0.010686886 0.1252816 0.029316071 -0.013903953 -0.050513353 0.18627757 0.12244346 0.08979054 0.033409804 -0.07837883 -0.17068703 -0.11896887 0.008108689 -0.14773276 0.064231984 0.10645965 -0.2835507 -0.1579084 0.100672886 0.16163068 0.051917743 -0.015558814 -0.014448208 0.13428274 -0.010214064 -0.07367547 0.0067220805 0.0035316905 -0.0847625 0.058597103 -0.11826663 -0.026790814 -0.0960609 -0.31186658 0.01839472 -0.18847045 -0.06738102 -0.19266938 -0.08579436 0.07158353 -0.016418977 -0.010109699 -0.09119309 -0.16922243 -0.19327736 0.10669477 0.043237794 -0.11889678 0.07057887 0.0017075625 0.0063215643 0.12881516 0.0891699 -0.05477768 0.029058421 -0.06672628 -0.00465741 0.19897547 0.0130212065 -0.04130758 0.0679645 0.0026600773 -0.1657698 0.056394305 -8.4250605e-05 -0.08246526 -0.07332205 -0.16624033 0.055009488 -0.028699338 -0.16336074 -0.05981594 -0.04361657 0.021569405 -0.043777555 -0.13964573 0.0050629494 0.073675446
quick -0.0064287875 0.07259924 0.27172956 -0.05854029 0.22122496 0.06128616 -0.08523044 -0.062126823 0.015726017 -0.03652278 -0.114498556 -0.022203635 -0.040631525 0.0768842 -0.04784249 0.11351462 0.07544034 0.088489324 -0.059107527 0.009540048 -0.061694175 -0.06596091 0.07572192 -0.030201945 0.03736909 0.051093046 -0.09246784 -0.017945837 0.031979084 0.046722054 -0.05658023 -0.071306005 0.06417997 -0.0049401354 0.19768198 -0.024207583 0.015041676 0.05067889 -0.13340802 0.057612073 0.21178494 0.017409721 0.042768173 -0.23117107 0.065006405 0.09125571 0.044573195 -0.052166525 0.07842417 -0.12642239 0.120096095 -0.0415535 0.032075103 0.056148067 -0.030133205 -0.026004195 0.013795328 -0.18308349 -0.004579024 0.03400219 0.06560526 0.0901037 -0.11027592 -0.13130195 -0.04882505 -0.088947184 -0.10889414 0.21857588 0.0043763337 -0.22179371 0.12631111 -0.033942148 -0.07766532 0.03246366 0.13763732 -0.016248375 0.018175747 0.2401931 -0.13675635 -0.0049886936 -0.14733776 -0.02573841 0.194831 -0.12752354 0.05741932 0.059816048 -0.01684093 -0.047169592 0.041503895 -0.09435458 -0.07873275 -0.015602046 -0.19073369 -0.060933925 -0.2501075 -0.068109274 0.040011875 0.028702712 0.0043078414 0.034281578
returns -0.09732652 0.06363282 0.037074424 -0.064356394 0.077677295 -0.01895016 0.020582898 0.11034569 0.08844287 0.14263241 0.022029603 -0.0064195725 0.10019348 0.023069376 -0.09175669 0.006644358 0.15732563 0.120992646 0.011333784 0.074634194 -0.08512735 0.05191011 0.14045475 -0.00023335773 0.056688588 0.08244148 0.014500603 -0.005257963 0.08324947 0.10047657 0.016989945 -0.12099204 -0.1287421 -0.07848959 0.007347186 -0.033601105 0.102917366 0.10789631 -0.05849306 -0.037028033 0.10371627 0.14164023 -0.018131044 -0.12359728 -0.13513246 0.09058747 0.03196888 -0.13739474 0.13033518 0.0004303404 0.020426799 -0.12053284 0.025003185 0.108135685 -0.091631204 -0.17146523 0.05169137 -0.20948334 -0.09940077 -0.01891053 0.13453597 -0.17622091 -0.054982115 -0.03952954 -0.05027607 0.014346091 -0.08691187 0.11475912 -0.22071159 -0.22716932 0.001074585 0.19208997 -0.017247004 0.009502238 0.072976 0.050318036 0.14420477 0.23689002 -0.07784549 0.08684894 -0.11275235 -0.070621386 0.16765131 0.16024783 -0.014184943 0.10393775 0.02375467 -0.15150703 0.057981733 -0.042623088 -0.006839879 -0.0591458 -0.09156299 -0.098809786 -0.047995545 0.10893201 -0.10337892 -0.1947643 -0.031269383 0.06987893
fault -0.069241166 0.14960851 0.15488493 -0.013942362 0.12557115 -0.054268524 0.18318382 -0.067114465 0.08267085 -0.098782495 -0.15951663 0.124535784 0.05177126 0.03641466 -0.10380926 0.04331489 -0.07972416 0.02003393 0.071814746 0.12108191 -0.084167175 -0.08732287 -0.085679464 0.0016202941 0.035510086 0.0522825 -0.10808722 0.15739234 0.078637466 0.062719874 -0.08227928 -0.08658486 -0.052491434 -0.0058983853 0.14024663 -0.1622577 -0.014610005 0.101559624 0.074253514 -0.099799104 0.08993182 0.086318955 -0.07834057 -0.2154053 -0.13831538 0.17121258 0.055700727 -0.15569684 0.1636525 -0.11165575 0.13933505 -0.120503336 0.06611628 0.102426596 -0.120005906 -0.022635654 0.14488395 -0.06805626 -0.09417129 -0.08544125 0.108639665 0.10608034 -0.10348877 -0.011857102 -0.17427756 -0.042612888 -0.1306386 0.09816856 0.050954584 -0.103958204 -0.15409766 -0.04636122 -0.10809217 0.04739994 -0.061811056 0.106561944 0.035059694 0.19570118 0.033940267 0.032298304 -0.13241789 0.0016591578 0.052152067 -0.02811752 -0.09273462 0.114124715 0.0009085839 -0.08375134 0.08493686 -0.1033223 -0.13890927 0.06321374 -0.01662506 -0.060897365 -0.14720172 -0.04085933 -0.02234752 -0.111308254 -0.03209656 0.0758587
first -0.08463627 0.03997065 0.16982391 0.015235915 0.10621538 0.016458236 0.015499378 -0.030062655 0.03779893 -0.043755725 -0.065466 -0.007622207 0.025606897 -0.021842238 -0.030892888 0.018925335 0.028722687 0.0674013 -0.08438068 -0.009275165 -0.12306807 0.0030282375 -0.057647374 0.030098688 0.06066274 0.04924479 -0.08164569 0.13039814 0.082369365 0.18910517 -0.022768257 -0.08136547 -0.10932762 -0.057535626 0.13753137 -0.22203098 -0.027602848 0.041352767 -0.04813616 -0.01072193 0.17292733 0.02578341 -0.061546408 -0.10760589 0.016016249 0.16435616 -0.02965989 -0.06205339 0.08646324 -0.015355068 0.08394195 -0.0314996 0.028594622 0.02892186 -0.21490571 0.009194817 0.22363588 -0.06964141 0.0072184303 -0.028194884 -0.05213331 0.14218655 -0.10130394 0.040770274 -0.20136113 -0.023792244 -0.20980634 0.06980731 0.14666876 -0.083021946 0.05826077 -0.21427397 -0.02814566 0.0012000024 -0.001647419 -0.012927451 0.027325777 0.029696543 0.011099348 -0.03252531 -0.049362514 -0.006618833 0.083526894 -0.15433404 -0.21266879 0.0918882 -1.3963368e-05 0.013877973 0.08557196 -0.2327448 -0.13250202 0.020973163 -0.06704715 0.017689304 -0.3738749 -0.044730958 -0.00935462 -0.13526684 -0.024134526 0.060704708
down 0.09298142 0.064206876 0.10395181 -0.08031942 0.008955654 -0.115561895 0.19390541 -0.19449022 0.09759782 0.15514325 0.075055115 0.1403638 0.024466956 -0.003903795 -0.100806676 0.010340114 0.15025702 0.19596444 0.12586907 0.11928506 -0.081509925 0.19202451 0.0762386 -0.13363893 0.1287361 0.10970399 0.2023726 0.10318982 0.057876106 0.07868529 0.13253589 -0.104322985 -0.09764848 0.012474416 0.069063306 -0.093905345 0.05323566 0.08870521 -0.06876797 -0.045100242 0.0844936 0.0014331187 -0.10112677 -0.1598787 -0.1856364 0.10974038 0.11609803 -0.103053585 0.118026175 0.018878363 0.00037555932 -0.1607191 0.11642854 0.13232037 -0.040186767 0.05606923 0.17807029 -0.04527582 -0.12909819 -0.03917828 0.027795333 -0.011400008 -0.09582849 0.039404776 -0.056504674 0.08853948 -0.07153263 0.07557218 -0.02665399 -0.1479678 0.10956076 -0.04003851 0.15590419 0.06957339 0.07704507 0.058046944 0.102648206 0.0037721787 -0.041708935 0.066966206 0.0443587 0.008513943 0.07078714 -0.12439196 -0.023382923 0.11518424 0.09625873 0.022541108 0.12714146 -0.054124355 -0.05602919 -0.027613977 0.1057392 -0.02040673 -0.13612884 0.056895386 -0.0005555244 0.010532992 -0.13382556 0.08516046
line -0.049279362 -0.009758778 0.14580664 -0.10995114 0.09297423 -0.13110259 -0.062460385 -0.13583852 0.16658159 0.14111301 -0.008467625 0.094317794 0.028988875 0.0064887577 -0.17669888 0.012233644 0.101806514 0.05662946 0.09265584 0.07651545 -0.18935204 0.17152572 0.03584717 -0.17414282 0.1386253 0.14106438 0.10342178 0.09629663 0.11496225 0.1491183 0.07733189 -0.11516007 -0.076910704 -0.12889536 0.11653661 -0.117724836 0.026324779 0.07164472 -0.016477047 -0.024277978 -0.030105218 0.0142390635 -0.174626 -0.06336674 -0.08840526 0.16760978 0.08292151 -0.08486576 0.16923054 0.03415457 0.11505372 -0.1757717 0.19744344 0.14892048 -0.12533501 -0.06382697 0.081328414 -0.18268615 -0.0632983 0.004599599 -0.08911825 0.027911631 -0.024147747 -0.0051176855 -0.13244396 0.059904046 -0.14233181 -0.057500638 0.01710163 -0.08457707 0.069814414 -0.022924943 0.13734718 0.015029133 0.06248908 -0.024363106 0.10007968 -0.023304338 -0.012669642 0.07375064 -0.005060437 -0.06725991 -0.051494166 0.053783637 -0.09051964 0.10913102 0.0867596 -0.015183905 0.20093472 -0.12305709 -0.065782964 0.018285131 0.014566188 0.013444242 -0.11329811 0.090629436 -0.036344957 0.013239519 -0.12733981 0.05756094
net 0.05738783 0.009671689 0.234464 0.006855136 0.089616835 -0.06438559 0.13214284 -0.03475056 0.020777095 -0.13108723 -0.035056844 0.20950282 -0.062015742 -0.061096482 -0.011696485 -0.0061455774 0.17335479 -0.110777654 0.25786698 0.1409035 -0.00650294 -0.058285452 0.019481864 0.08272147 0.019030139 0.10035982 -0.0025247594 0.217074 0.095576495 0.119733535 0.030864052 -0.13594127 -0.13634922 0.054500457 0.037340287 -0.10762747 0.081636764 0.09237829 -0.0936178 -0.07179095 -0.030798282 0.018573955 -0.09335666 0.044439793 -0.10022216 0.04408524 0.21425092 0.017276337 0.10317728 -0.05602401 -0.0345066 -0.14524776 -0.05589527 0.15184951 0.013146878 -0.12442532 0.15310358 0.024907924 -0.09153801 -0.14195402 0.13117014 0.054033864 -0.05012787 -0.12587348 -0.00848339 -0.19242711 -0.049498618 0.039376453 0.065618545 0.02889615 0.08100555 -0.05543747 -0.16008079 0.18472995 -0.101679884 -0.0019079556 0.14021146 -0.07890097 -0.054519057 0.13995062 0.0023659104 -0.14005002 -0.11599105 -0.018624693 -0.044734277 -0.030402435 -0.0051990426 -0.015193549 -0.00050837814 -0.09374627 -0.07377998 0.036918096 -0.08927925 -0.011259259 0.0074319155 0.03593639 0.030478744 -0.07959813 -0.20950878 0.10212895
cross-court -0.096247576 -0.0011893164 0.12700036 -0.102258675 0.06788838 -0.19325636 -0.05037427 -0.110796794 -0.0033424038 0.15054633 0.14464551 0.072230734 0.05613036 0.02558601 -0.007143782 0.04064464 -0.00084329117 0.17988518 0.03367677 0.06871419 -0.03800623 0.12553048 -0.015526256 -0.055835098 0.07045228 0.08193113 0.06821691 -0.0538062 0.041076344 0.0039306255 0.08009206 -0.03646049 -0.06667856 -0.14127514 0.17604989 0.01765211 0.05185044 0.0396122 -0.09371775 -0.22019452 0.057999693 0.20977631 -0.11939132 0.0036748694 -0.060299736 -0.023866246 0.052749563 0.028643819 0.21180321 -0.0032855899 0.06743733 -0.03697244 0.060003955 0.034110673 -0.0036527624 -0.21989363 0.19849701 -0.252961 -0.028904647 0.005057313 0.069850475 0.0024982735 -0.12608771 0.035627086 -0.019423548 -0.045753874 -0.15645756 0.20872134 -0.064762145 -0.10158203 0.051523723 -0.042093124 0.12955211 0.08986234 0.09934701 -0.102149576 -0.004979694 -0.05057203 -0.066686995 0.10251725 -0.041632526 -0.0001347058 0.04356919 -0.014722087 -0.04443357 -0.047180902 0.05737697 -0.20359363 0.022787992 -0.12058448 -0.10396227 -0.05239782 0.07103928 -0.14592919 -0.0025234923 0.07265661 -0.13450718 -0.20602438 -0.14895567 0.028099636
hits -0.07287959 0.105769806 0.056130458 0.039040837 0.073110886 -0.12703682 0.17749359 -0.17633545 0.0005442926 0.122425206 -0.0060706623 0.24538052 0.066365436 -0.16204904 -0.0011788522 -0.03149854 0.023634017 0.21166976 0.1683799 0.03936893 -0.015234979 0.008763992 0.14329866 0.040192403 -0.024558133 -0.09785968 0.03502506 0.038673572 0.058385022 0.0759686 0.028323604 -0.09236277 -0.15254608 -0.13923602 0.19418064 -0.1180086 0.00039950034 0.05513305 0.046562605 -0.08767555 0.14231017 0.15787695 -0.022144064 -0.24678065 -0.10311558 0.16417682 0.021631988 -0.2226336 0.07969234 -0.06727391 0.18475275 -0.03894606 -0.01665303 0.044511538 -0.07659216 -0.12338699 0.09420772 -0.18343623 -0.028317835 -0.1458813 -0.005235368 0.05288093 -0.10782482 0.040086363 -0.10407305 0.07708508 -0.11911914 0.10793673 0.0091146 -0.12255752 -0.13628009 0.005448585 -0.05511557 0.03900838 -0.14173234 0.037137922 0.0740856 0.095687 -0.12714186 0.1199362 -0.05779853 0.07752002 -0.02807116 -0.019353515 -0.07915743 -0.015075694 0.038054474 -0.08930714 -0.01952942 -0.05027926 -0.068121426 -0.04645157 0.021050273 -0.051853333 -0.014362019 -0.072784945 -0.11041519 0.029935846 -0.036979854 0.0055464795
at -0.0060455636 0.08840944 0.0686602 0.014373082 0.08028577 0.018263586 -0.006342422 -0.01474294 0.069780506 0.12241479 0.10213608 0.1719203 0.08588403 -0.15700494 -0.053436246 -0.08633109 0.16958518 0.056756694 0.18973356 0.11745006 -0.102448486 -0.0049388343 -0.049286418 -0.0016863303 0.10075005 0.087775454 0.029069385 0.15418941 0.1665965 0.10082332 -0.033625733 -0.013543281 -0.21046227 0.013918279 -0.0064453287 0.0071236347 0.09439321 0.091482 0.0053650946 -0.007132022 0.11330721 0.08202138 -0.108295254 0.038237233 -0.079513915 0.094835445 0.12483572 -0.16551998 0.096762754 -0.12950633 -0.011124581 -0.02508076 -0.0478527 0.06418075 -0.09846487 -0.067814365 0.0014024605 -0.014107586 -0.13378549 -0.15678541 0.17607538 -0.052025765 -0.031864345 -0.15694922 -0.023282928 0.10837277 0.039562553 0.01672188 -0.056233723 0.10150361 0.10084267 0.09003963 -0.05395835 0.105200216 -0.0306062 0.12376648 0.1148488 0.0058852904 0.04509624 0.22585842 -0.03188249 -0.20543659 -0.0878873 0.08927295 0.099681646 -0.027747111 0.0011741329 -0.09755424 0.042221118 0.02706546 0.040158954 0.14803675 -0.2482937 -0.14884683 0.025950184 -0.15753435 -0.07801847 0.12038923 -0.111394264 0.095453605
fine -0.10843828 0.0013462427 0.17486277 0.020991491 0.085203305 0.05565009 -0.089265235 0.038160797 0.062247094 0.02437223 0.07723108 -0.06027963 0.009429678 -0.0703705 -0.04502568 -0.0314104 0.09440753 0.030152893 -0.0376483 -0.025922142 -0.101631016 0.027994169 -0.05077804 -0.018131137 0.089361526 0.09810735 0.0010769232 0.032263704 0.06386236 0.2265573 -0.04840312 -0.020101635 -0.15797004 -0.07489168 0.12547497 -0.13337612 0.029807031 0.04837298 0.02365828 0.12413485 0.21247093 0.04422317 -0.0670935 -0.089669816 0.010282093 0.11317223 0.023709156 -0.124475025 0.034698524 -0.009866813 0.06992101 -0.016796747 0.008528561 0.014307439 -0.17209558 -0.008902011 0.25277808 -0.06609024 -0.0045932606 -0.014483155 0.023798447 0.122633986 -0.10874733 -0.0052657975 -0.18723926 0.13297884 -0.18748918 0.085846834 0.09250187 -0.12437456 0.1418975 -0.19810733 -0.016183835 0.018170701 0.04666301 0.0037674839 0.07173987 0.008099656 0.02404082 -0.04590534 -0.01768473 0.0033398098 0.15751688 0.02008312 -0.2241494 0.09970093 -0.018684216 -0.08241696 0.09541665 -0.20974553 -0.13349456 0.07739602 -0.11314412 -0.051864643 -0.3071803 -0.17363407 -0.03655247 -0.06935764 -0.0538358 -0.010304036
t 0.036578193 0.20428674 0.05699089 0.0057947286 0.09589757 0.014723789 0.088729955 -0.06433449 0.1098924 0.07085521 0.041587062 0.031201493 0.24106759 -0.04984999 -0.10271705 -0.046508603 0.12521207 0.02373192 0.077951886 0.1120662 -0.05420939 0.068723485 0.07838498 -0.07910735 0.045432676 0.06134196 0.08275868 0.16246966 0.12830235 0.21679243 -0.023779405 -0.0892953 -0.11472122 -0.019345148 0.064092435 0.06787469 0.038579855 0.080844305 0.056677055 0.030306831 -0.043398228 0.1271391 -0.062855475 -0.027748462 -0.18193148 0.06851566 0.12822388 -0.20664467 0.02484673 -0.115375176 -0.14987367 -0.091437235 0.065494336 0.039190374 -0.011556239 -0.029484706 -0.004101458 0.08704054 -0.18105356 -0.14494078 0.103044465 -0.05087884 -0.11516021 -0.16307497 -0.13106747 0.050592802 0.11033462 -0.06376758 -0.1006154 0.054725762 0.18201451 0.010375944 -0.012380018 -0.005305632 -0.038676206 0.12077312 0.16657868 0.0021809128 0.045634676 0.09001663 -0.03883411 -0.06110171 0.065917574 0.051921595 0.17076495 0.016512165 0.01279209 0.021741105 0.09787071 0.082998395 -0.0037002398 0.073714815 -0.12785266 -0.19915144 -0.15128788 -0.12463851 -0.17181103 0.14972733 0.0057885456 0.07589583
court -0.08888164 -0.049374614 0.120681144 -0.12265352 0.14298677 -0.08805976 -0.14322087 -0.021900566 0.04897025 0.06305276 0.17696472 0.022928279 0.039031178 0.09826614 -0.06049008 0.012882845 0.0043886886 0.047012415 -0.023546029 0.10218453 -0.08269696 0.061240777 -0.08957287 -0.07246443 0.06421618 0.13547443 0.02458678 0.004190841 0.12234774 0.09194859 0.09229 -0.109009504 -0.052256368 -0.068053305 0.15550125 -0.04508996 0.14678864 0.088421494 -0.071325935 -0.077425264 0.016519936 0.17250195 -0.092142016 0.14939898 -0.015817244 0.07502134 0.07830664 0.1356855 0.17010607 -0.011120896 0.08267269 -0.027336555 0.116696 0.051492393 -0.05407419 -0.17969571 0.113796964 -0.18385844 -0.06926423 0.06879752 0.071495585 0.09735329 -0.14146239 -0.13570546 -0.1086375 -0.11373226 -0.13763128 0.13232125 0.079588674 0.036193285 0.08159433 -0.084051505 0.1508006 0.16024517 0.1345687 -0.08150688 0.060095083 -0.0368823 -0.00014146198 0.099416375 -0.037128452 -0.12560166 0.067728885 -0.06863388 -0.091143705 0.06266805 0.09844782 -0.12180389 0.07262659 -0.12352055 -0.17516194 0.051648356 -0.049237225 -0.09815795 -0.07134097 0.08683111 -0.082652904 -0.2261531 -0.0719188 0.12411155
serves -0.14116001 0.18110673 0.023246719 -0.016819052 -0.060548775 -0.18789525 0.19762193 -0.14991118 -0.008365765 -0.0156104 -0.014563007 0.042380273 0.15042861 -0.045145072 -0.048964687 -0.015278853 0.08593043 0.21100996 0.065010145 0.03086314 0.041491453 -0.03775046 0.021794282 -0.060647674 -0.052857008 -0.022901373 0.03864515 -0.0017939582 -0.024054695 0.13055196 -0.032237154 -0.11387049 -0.19118524 -0.11966965 0.028965292 -0.0011143468 0.048743073 0.09230057 0.1301262 -0.15435418 0.11208352 0.2224762 0.008583448 -0.0584561 -0.16130626 0.11764206 0.069156975 -0.109129585 0.07551932 -0.09917688 0.015177035 -0.019583205 0.08824515 0.007323271 -0.14851075 -0.10475611 0.048522864 -0.043311466 -0.033467162 -0.13821203 0.0071047777 -0.071499735 -0.054386023 0.02023801 -0.24059193 -0.030849027 0.023405418 0.16866219 -0.08172186 -0.03257349 -0.040882144 0.09446425 0.10766447 0.06507919 -0.05647902 0.12703356 0.16967213 0.22250743 -0.018372308 0.04128976 -0.109519556 0.111766644 -0.056791496 -0.013424589 -0.121530086 0.12987353 0.02250507 -0.162464 0.0016612172 0.027764456 -0.041336514 0.011171361 -0.025758032 -0.14250879 -0.10378493 -0.049773753 -0.17316185 -0.13648947 0.03328032 -0.073409386
middle -0.019333968 0.0152954105 0.035468116 -0.026744667 0.057752598 -0.054096535 0.13243264 -0.08252376 0.0884531 0.020344429 -0.13211899 -0.030592585 0.00040140125 -0.048180122 -0.03450505 -0.026877286 0.17853825 0.13835 -0.0072809784 0.10345226 0.031984027 -0.039577276 0.06567273 0.03853984 -0.05606298 0.03604343 0.060506176 0.018973382 0.226594 0.17923416 0.059231672 -0.12222052 -0.21585302 -0.064676784 -0.0056498596 0.08026453 0.1147919 0.16087581 -0.08217784 0.1367578 0.17105055 0.07079913 -0.057901934 -0.045730848 -0.026308151 0.19697683 0.043913223 -0.08196189 0.15465891 -0.08669128 -0.09798531 -0.052362595 0.039731823 0.012066619 -0.14056417 -0.10840656 -0.028204484 -0.124982886 -0.19583605 -0.15181793 -0.07113462 0.005877942 -0.02963689 -0.15518859 -0.1706877 -0.055698764 0.049259715 0.10439532 -0.039849307 -0.17865372 0.14059418 0.067697145 -0.01444744 0.115148745 -0.06463298 0.025606176 0.18027754 0.13617182 -0.0700542 0.151359 -0.08401193 -0.068859294 -0.003927181 -0.14340617 0.042047806 0.103462785 0.055371627 -0.037381556 -0.0102753695 -0.114426285 -0.045737788 0.080517516 -0.09897946 -0.016422488 -0.2149198 -0.00289957 0.010010145 -0.11442899 -0.0023518524 0.1406094
of -0.08431832 -0.011120277 -0.016637206 -0.048100192 0.32591346 0.07488789 0.09351888 -0.050476965 0.105560854 0.20371786 0.04859181 0.02246343 0.04277655 0.10079376 -0.09519521 0.0032998014 -0.02868756 0.08145771 -0.047014087 -0.0001536086 -0.124554515 0.21976477 0.03498767 -0.118299484 0.08799881 0.017915875 0.12954634 0.18279092 0.11427443 -0.019660037 0.13292406 -0.08236259 0.07239211 -0.11895298 0.1634373 -0.17773896 0.09800978 0.066684656 -0.031226756 -0.04155341 0.11565507 0.088474534 -0.08876958 0.098496914 -0.17213337 0.20908256 0.0026623097 0.022563929 0.18190071 -0.07197829 0.16614339 -0.09583444 0.15881413 0.07492645 -0.05820427 -0.09885196 0.015656518 -0.14984031 -0.046585217 0.044053797 0.07507791 0.14739236 -0.07732731 -0.016712535 -0.04170966 -0.13463885 -0.09007338 0.09339108 0.036097836 -0.062541015 -0.047920164 0.046848364 0.055371094 -0.025459891 0.0016516569 -0.013335598 0.034574572 0.09878689 -0.0892719 0.004800045 -0.020647526 -0.16327795 0.02165334 -0.08081499 0.09114306 0.049539693 0.11108162 -0.08366094 0.101822086 -0.059320576 -0.22370589 -0.026192907 0.04397459 -0.05292064 0.09883205 0.008278326 -0.07165807 -0.014733184 -0.00706844 0.032061923
short -0.2051417 0.036276218 0.015654188 -0.040289506 0.06296009 -0.0049443576 0.20160669 -0.088259816 0.08157276 -0.04109246 -0.07501391 -0.004972952 0.115770385 -0.07950527 -0.08778569 0.08915979 -0.059564706 0.09595805 -0.08781821 0.005340675 -0.12021045 0.0011204092 0.099028006 -0.062210657 0.033642493 0.029238487 0.059413753 0.10790387 0.11381778 0.015476399 0.088662855 0.0800668 -0.17989996 -0.12038215 0.10625192 -0.1868225 -0.007886126 -0.04748449 0.031268135 -0.04816523 0.17709224 0.068967946 -0.05615054 -0.1417224 -0.0068599726 0.113318354 -0.071554795 -0.06437748 0.15162857 -0.18249123 0.07266987 -0.08306884 0.08070207 0.101108834 -0.050579682 -0.057958063 0.027312782 -0.060079403 -0.010688593 -0.03503372 0.03621823 0.062004194 0.0045548785 -0.003392691 0.023965323 -0.23564343 -0.14665447 0.23517267 0.030695463 -0.18791865 -0.032925867 -0.048809446 -0.0877785 0.046607524 0.018963922 0.06239703 -0.0829033 0.11894038 -0.1277276 -0.0530062 -0.20561595 0.035047308 0.09103511 -0.0989258 -0.038118314 -0.0079867905 0.08683958 -0.07758021 0.06472652 -0.09403764 -0.07698129 -0.0935606 -0.21159604 -0.08984406 -0.095968984 0.0029002686 -0.10213488 -0.2582609 -0.012322525 0.08289682
fails -0.11695824 0.030516211 0.047025695 0.028980678 0.13301937 0.06611989 0.021865282 -0.12429316 -0.049106766 0.20518424 0.028694982 0.060723003 0.17451009 0.044094123 0.060350582 -0.03219802 0.121924505 0.009944208 -0.004009237 0.027747223 -0.0116380835 0.20154023 0.03587173 -0.074470475 -0.015632784 -0.047741294 0.14966092 0.1945037 0.10917177 0.014761294 0.13296928 -0.16503198 -0.060122404 -0.11378056 0.16059113 -0.14478675 0.081517376 0.050820183 -0.1924004 -0.19954796 -0.09970807 -0.052053005 0.008463946 -0.13966522 -0.17604491 0.1177746 0.01583561 0.034771923 0.05635878 -0.08342093 -0.05067612 -0.044272296 -0.0062667956 0.007137725 -0.1536223 -0.13442665 0.08849511 -0.16305201 -0.045486152 0.04038269 0.012797675 -0.023517892 -0.10419794 -0.02175288 -0.06756259 -0.10154549 -0.1415721 -0.1829812 -0.06271976 -0.14375126 0.03948164 0.018392771 0.02785845 -0.052490387 0.0043785297 0.13840157 0.037136775 -0.06768038 0.07103451 0.08870865 -0.1502707 -0.10649914 -0.13591932 0.04236092 -0.09567733 0.13761348 -0.026830073 -0.09074575 -0.036580727 -0.08776385 -0.085493326 0.01761015 0.009413401 -0.074084654 0.049106553 0.17570803 -0.13612528 -0.18773654 -0.029273873 0.05210573
crafts -0.070292026 0.010739442 -0.0037807017 -0.02323505 0.078741945 -0.021035366 0.0190752 0.033004977 0.03960472 0.10835056 0.14956002 0.015422505 0.0519454 -0.05773696 -0.057309516 -0.11591021 0.10207431 0.13323392 -0.0140999975 0.011925877 -0.067232996 0.056149125 0.059728403 -0.036826044 0.065269336 0.03471219 0.10835825 -0.08113954 0.017285267 0.10160656 0.063018374 -0.03275265 -0.15531577 -0.08823806 0.055398364 -0.068942845 0.14092627 0.08262247 -0.06477111 -0.010014322 0.20408708 0.15627843 -0.0039594295 -0.12912187 -0.016541278 0.12698556 0.0030221746 -0.11716196 0.17833148 -0.065416075 0.030840617 -0.08064838 0.06354421 0.10733158 -0.18744914 -0.16487776 0.08545397 -0.13826838 -0.052655585 -0.08484561 0.18038833 -0.004006662 -0.14426899 -0.022535838 -0.0958064 0.03936109 -0.12388669 0.26098588 -0.023048965 -0.1949699 -0.012601455 0.048660226 0.039963137 0.07705516 0.06992681 0.0710181 0.14743856 0.20517845 -0.14199549 -0.050228097 -0.03912906 0.05787536 0.084144555 -0.017486073 0.011813659 0.0748184 0.06298346 -0.2178895 0.026917743 -0.077984795 -0.059417054 -0.020548621 -0.22074482 -0.132364 -0.063309744 0.07394308 -0.07362359 -0.22102049 -0.039892916 0.026897369
delivers -0.098631024 0.06010786 0.020111078 -0.035471167 0.09780995 0.022013849 0.062155712 0.10238366 0.03366251 0.12351045 0.12501858 0.019845989 0.096014164 -0.033494536 -0.015188993 -0.0713596 0.13726248 0.16676277 0.0034553437 0.036918156 -0.034870066 0.11367059 0.025003724 -0.0012028819 0.06367561 0.050995316 0.117722504 -0.005905523 0.011802676 0.0782948 0.11383752 -0.018566411 -0.18300878 -0.08782595 0.07296817 -0.07057443 0.15050581 0.09110255 -0.041040342 -0.050410353 0.15979065 0.16599919 -0.007926881 -0.14039001 -0.02106165 0.100391425 0.013653411 -0.09940947 0.10796448 -0.07247797 -0.017928168 -0.06867931 0.04137028 0.080138035 -0.12508036 -0.112007365 0.14390454 -0.035085324 -0.091504395 -0.12653996 0.2388434 -0.07988593 -0.1666736 -0.0487477 -0.07647554 0.009158085 -0.097032234 0.18920167 -0.07225376 -0.1906464 0.012808475 0.1194613 0.04686688 0.055699702 0.0839145 0.05389101 0.13206884 0.20222673 -0.105188005 -0.01323292 -0.098539025 0.031435963 0.09792267 -0.073947184 0.020374024 0.041036975 0.06811478 -0.17924921 0.013577402 0.0005451 -0.09107822 -0.052412935 -0.2218394 -0.13914996 -0.023224467 0.03803091 -0.12096568 -0.2757108 -0.03550306 0.031647056
slice -0.1752215 0.10537504 0.082908764 -0.058535155 0.070106 -0.06402995 0.036628015 -0.2061683 0.05693863 -0.035354715 -0.037469443 -0.012730435 0.1515679 -0.06342259 -0.091177486 -0.039660808 -0.028202329 0.055689078 -0.1263069 0.07309972 -0.06120323 0.00030520782 0.091095984 -0.10506043 -0.055564288 -0.016781827 0.09606933 0.05626705 0.16104335 0.1093012 0.091634095 0.008282002 -0.23730351 0.009214897 0.14008877 -0.02702299 -0.017369227 -0.015896853 0.07127291 -0.047741015 -0.022651752 -0.10592431 -0.042077087 -0.037112936 0.18343882 -0.009977108 -0.08169689 -0.051550172 0.2369088 -0.028125739 -0.028874718 -0.11704644 0.13935685 0.099101774 -0.16519596 0.14019378 0.0072756023 -0.14688535 -0.0821853 -0.09535825 -0.13767023 -0.09323219 -0.080581985 -0.08034629 -0.10075995 -0.11075289 -0.059164185 0.09077711 -0.10464585 -0.017847076 -0.0045153494 -0.034452844 -0.0416366 0.032726143 -0.08145323 -0.0124873 0.027909387 0.08591808 -0.026511852 -0.028971564 -0.22762324 0.06808101 -0.17579865 -0.11113426 -0.034343757 -0.002701393 0.06120629 0.11052646 0.013129177 -0.07925532 -0.07584464 -0.028332416 -0.21608117 0.033617668 -0.23364271 0.11377946 -0.0945454 -0.20720741 0.06202939 0.080604605
brief -0.15693186 0.05979512 -0.026909979 -0.06497853 0.091766454 -0.09154371 0.21709631 -0.027736358 0.0807339 0.047505632 -0.049138542 0.045538224 0.12864551 -0.06041953 -0.045550626 0.098331824 -0.11791079 0.18591598 -0.002370082 0.009207226 -0.11291706 0.07783954 0.05627488 -0.042866934 0.10798362 0.049094968 0.042439617 0.017389128 0.033915937 0.020828689 0.07892996 0.06782187 -0.20381494 -0.13519387 0.04492999 -0.15011717 0.013034522 -0.018036336 -0.002119922 -0.12856074 0.18965478 0.12564787 -0.12099964 -0.17279291 -0.07747905 0.058245834 -0.057508916 -0.08886805 0.103766955 -0.13064234 -0.004795352 -0.07975512 0.05114202 0.07296047 -0.115170054 -0.10237379 0.20429772 -0.037765887 -0.0016125069 -0.023849487 0.057176385 -0.030692935 -0.09013639 0.021825757 0.028518565 -0.22510889 -0.11201619 0.15167056 0.008839449 -0.16470832 0.027477803 -0.046990886 0.021591619 0.021979151 0.07724435 0.122111954 -0.030717846 0.0031352646 -0.09095007 -0.050187733 -0.17998357 -0.025853211 0.063305214 -0.123148054 0.050459158 -0.095250405 0.10765783 -0.13832764 0.056098696 -0.054552265 -0.04224569 -0.06319529 -0.17157486 -0.12418331 -0.1410811 -0.003974784 -0.09395475 -0.2530711 -0.099078506 0.10270876
works -0.09231227 0.10484422 0.0048434963 -0.008220352 0.086924635 -0.0086363945 0.17186788 0.051416542 0.00571162 0.09288939 0.03961603 0.057831947 0.10037459 -0.022488194 -1.5569654e-05 -0.064043485 0.04943941 0.16562228 0.025297832 0.028124414 -0.059802458 0.11411743 0.02040826 -0.01315541 0.06784606 0.006413113 0.0065278555 -0.021327963 0.0051303655 0.047528435 0.040443245 -0.12416798 -0.0937547 -0.088262625 0.08066634 -0.08851952 0.14607356 0.10347743 -0.09311715 -0.09716709 0.18095084 0.15790698 -0.0135848 -0.23166843 -0.051644403 0.11213264 0.0663938 -0.16824281 0.106676385 -0.07109166 0.042306665 -0.02398127 0.037648823 0.03592118 -0.103790104 -0.10043845 0.12768583 -0.14967845 -0.031294182 -0.1808058 0.23921701 -0.067013234 -0.11829046 -0.0011844321 -0.10457439 -0.022051105 -0.063624606 0.13928357 -0.099737674 -0.18480922 -0.07395372 0.1403723 0.052536614 0.008562605 0.054806612 0.06502019 0.10817031 0.2741551 -0.090259574 -0.053659316 -0.066224836 0.07164917 0.08467186 0.028968645 0.03829677 0.082002595 0.045887917 -0.20942003 0.023913544 -0.07054611 -0.06891082 -0.059917588 -0.20709866 -0.14204258 0.004748249 0.011828812 -0.123308435 -0.16643712 -0.05878937 -0.032719713
shots -0.15794845 0.0694635 -0.060029685 -0.02770612 0.16932352 -0.031858813 0.2652075 -0.19965695 0.07589597 0.11699103 0.020698387 0.102582216 0.16680942 0.04044766 -0.08774678 -0.010246408 -0.08782179 0.15160234 0.00028964214 0.04345316 -0.07827715 0.11749534 -0.013180217 -0.13625486 -0.005025456 -0.029440828 0.10734457 0.13830756 0.12066493 -0.055411246 0.10869562 0.014264425 -0.0022583324 -0.12307313 0.14636445 -0.14074041 0.06750788 0.0665381 0.071577586 -0.11360263 0.06544844 0.14754254 -0.070527166 0.027174091 -0.17012985 0.1315474 0.01806983 -0.02556176 0.21443765 -0.13995035 0.1556746 -0.039444473 0.16163827 0.034781255 -0.031884238 -0.025161555 -0.023728874 -0.08078463 -0.07508704 -0.007497938 0.100198895 0.14986709 -0.00949714 0.0064776675 -0.0664576 -0.101972386 -0.028204205 0.13565168 0.04101949 -0.01701994 -0.09701585 0.07547461 0.09889869 -0.051098455 -0.050776783 0.045566566 0.0056313933 0.19919735 -0.004187542 -0.0046117385 -0.113289654 -0.029574545 -0.01390451 -0.11888197 0.002124299 0.070722595 0.121201806 -0.12591024 0.04925811 0.041235734 -0.21245459 0.025209747 0.067652 -0.1272278 0.08416875 -0.00012557025 -0.17490913 -0.12965196 0.02814905 -0.017069286
exchanged -0.13151467 0.11361708 0.090757355 -0.087540664 0.1309858 -0.12144549 0.17237343 -0.12463368 0.045912515 0.028507337 0.12898606 0.08489712 0.15584263 0.037094485 -0.076418325 0.018993722 -0.05216711 0.10999661 0.022275763 0.08930706 0.0126540335 0.08047705 -0.039467264 -0.11356801 -0.029388256 -0.004447928 0.06586713 0.16758321 0.06713893 -0.077852406 0.1010914 0.030588334 0.027699854 -0.11328954 0.16680215 -0.077243984 0.09979118 0.0903908 0.028349692 -0.1903042 0.03656732 0.2308405 -0.08522733 0.06345837 -0.15856007 0.08350845 0.08436947 0.03688764 0.21548328 -0.12566416 0.14968215 -0.058050286 0.14745027 0.031635825 0.0699913 -0.15188928 0.13198689 -0.06924572 -0.092634074 -0.021042058 0.16602986 0.097782575 -0.11899665 -0.0438456 -0.036206577 -0.12846477 -0.015563672 0.120646454 -0.059598785 0.020269163 -0.14712723 0.038553096 0.03615023 0.043628946 -0.020607864 0.00016817945 0.04021884 0.11458329 -0.046555728 0.0825545 -0.094276205 -0.023446757 -0.04302255 -0.052332 -0.0013886788 0.02243267 0.11091507 -0.13067688 0.021107068 0.047849502 -0.22240463 0.040228248 0.07288079 -0.1593507 0.15240596 0.011245278 -0.15335011 -0.15472503 0.012918073 0.0029520001
couple -0.1498597 0.043404963 0.07988398 -0.133682 0.13352403 -0.059939433 0.054939892 -0.015484562 0.088164814 0.102768555 0.084917635 0.05733218 0.10859372 0.09869953 -0.09801964 0.07069516 -0.044754066 0.123659 0.04466134 0.022805652 -0.09802061 0.14290711 0.01790887 -0.13965434 0.10338052 0.11930288 0.07178813 0.03514607 -0.032254394 -0.013998996 0.101940274 -0.062889054 0.0009552652 -0.09439954 0.060464628 -0.06288446 0.079692386 0.034496125 -0.036546 -0.119022176 0.055671092 0.22539628 -0.09730408 0.028925775 -0.16003917 -0.030457556 0.07308256 -0.006255051 0.13272057 -0.08951398 0.102357365 -0.0721219 0.16573267 0.096773475 -0.020392291 -0.14072065 0.057177033 -0.10663403 0.016846985 0.023786861 0.22225685 0.056183256 -0.021855783 0.0024709497 -0.05017217 -0.06321273 -0.097272314 0.20371395 0.010264179 -0.04525658 -0.030458711 0.091580614 0.17526941 0.029939296 0.11013129 -0.01808345 0.026836287 0.2014144 -0.08701468 0.0044212 -0.071633786 -0.058154743 0.13126668 0.02263256 -0.009288881 0.01997296 0.13905849 -0.2067312 0.12288803 -0.09240517 -0.1500893 -0.06350561 0.007257697 -0.16313532 0.09066071 0.012745033 -0.18132988 -0.24091892 -0.12506667 0.009881492
back -0.08044042 0.17639516 0.30784157 -0.03340009 0.015123162 0.043012056 -0.014887309 -0.0662184 0.0043054256 -0.10988423 -0.056935582 -0.04664552 0.0798375 0.021305792 -0.02272155 0.04029401 0.1420591 0.023503916 -0.01534685 -0.04596118 -0.048151128 0.03437947 0.07617265 -0.11668184 0.053064533 0.04576596 -0.029958138 0.1955894 -0.10550087 0.11133834 -0.010039639 -0.10964416 -0.079816155 -0.025109382 0.1276529 -0.13962497 -0.007261539 0.021684462 -0.11617172 -0.15992303 0.03548877 0.0913276 0.010701183 -0.21188778 0.015405484 0.058005817 0.107831374 -0.033334777 -0.026026033 -0.12317411 0.01580691 -0.068454966 0.06738944 0.057775363 -0.10660392 -0.0843589 0.16309789 0.0790267 0.050824266 -0.06891144 0.12634106 -0.12581761 -0.12994874 -0.12554081 -0.053082053 -0.15129499 -0.098941326 0.05333072 -0.09523741 -0.072437376 0.09233737 0.05989598 -0.012715254 0.019042032 0.13057558 0.10535944 0.082713924 0.1727465 -0.050057013 -0.09695575 -0.1560759 0.0469136 0.13643587 0.11340878 0.0058737528 0.052237637 -0.01783886 -0.01794066 0.06961666 0.05534626 -0.018441083 -0.014043353 -0.30130294 -0.14214256 -0.18680197 0.04569953 -0.06500915 -0.18617462 -0.023608284 -0.0567244
one -0.08429274 0.173434 0.10327491 -0.0015067741 -0.084653966 -0.04025382 0.10886405 -0.1565486 0.06518181 -0.03770015 -0.047526985 -0.02842643 0.18144917 -0.10878494 -0.070499554 0.044470295 0.21547908 0.10797412 0.036778226 0.06654398 -0.014739685 -0.027297376 0.06482988 -0.042283047 0.001147827 0.051563744 0.081309184 0.25390673 0.094442345 0.16971736 -0.019336637 -0.05034114 -0.20482945 -0.12033347 -0.03455619 0.012511571 -0.010912361 0.054897513 0.046140794 -0.090635434 0.13818824 0.1280999 -0.052286975 -0.15708706 -0.14144394 0.15445174 0.08697614 -0.11656272 0.0054756505 -0.15349142 -0.12345875 -0.025322558 0.024944266 0.015169417 -0.04720198 -0.10757757 -0.0402157 0.0967628 -0.11187896 -0.15915293 0.05093958 -0.009727473 0.025848288 -0.0967755 -0.12075215 -0.06731621 0.09006975 0.094950415 -0.013134133 -0.079113595 0.19252107 0.002564492 -0.035382215 0.057899743 -0.026815899 0.15372454 0.11727538 0.09427417 -0.04738524 0.093047366 -0.117927216 0.015450404 -0.020417852 -0.116088025 -0.0016291403 0.06618194 -0.002815165 -0.08235082 0.056414846 0.04545002 0.0514003 0.06211988 -0.14320531 -0.16755238 -0.23014978 -0.17884131 -0.13848962 -0.0048796083 0.0055130594 0.02292887
goes -0.111448675 0.058721658 0.054448295 -0.07131333 0.07158436 -0.11366876 -0.0053014006 -0.1533697 0.010570456 -0.03774875 0.123704106 0.10933268 0.051482342 -0.10954878 -0.058456108 0.028031245 -0.043246157 0.06196688 -0.020366678 0.019282423 -0.07524412 0.021967322 0.11093338 -0.12101632 0.033905175 0.03465376 0.21070637 -0.036906566 0.07388998 0.12287511 0.14735332 0.08380709 -0.22639143 -0.060725883 0.12003774 -0.16036531 0.085602544 -0.06384096 0.19634615 -0.0029790092 0.10175803 0.06369188 -0.06311512 0.13860579 0.021316161 0.17762443 0.010069461 -0.0278072 0.21658903 -0.08189297 0.12295058 -0.14825784 0.11692915 0.16884983 -0.13608956 -0.057463467 0.22057945 -0.016185332 0.01323965 0.071841314 -0.016655127 -0.015903896 -0.1749286 -0.03525574 -0.014588581 -0.2177689 -0.086776 0.18830054 0.027349943 -0.015202073 -0.009094372 -0.03416185 0.02852398 0.12211445 -0.00618043 0.05762998 0.09503483 -0.06948973 -0.12253072 -0.102794334 -0.07251116 0.022029033 -0.04246946 -0.10662052 0.0064942725 -0.09874064 0.115141355 -0.054925784 0.026554603 0.038223047 -0.11595021 -0.03010715 -0.124971375 -0.035905126 -0.0991057 0.09096317 -0.028747166 -0.17228928 -0.07775124 0.092432186
but 0.06460683 0.039565396 0.19897926 -0.06340581 0.11396302 -0.06683133 -0.06978811 -0.123572126 0.055875327 0.10293026 -0.10508286 0.1317573 -0.034122854 0.06250358 -0.056005057 0.07776954 0.10942156 -0.042499397 0.15526481 0.10621633 -0.12195303 0.15883033 -0.065200225 -0.12046285 0.15579559 0.10073607 -0.0044602873 0.18996501 -0.012972035 0.11473816 -0.0065704966 -0.1976768 0.09978429 0.048319872 0.09614858 -0.17742994 0.081787914 0.11623503 -0.17004462 -0.21902412 -0.0143137425 0.040146157 -0.045171913 -0.106352665 -0.0765978 0.055507727 0.19518515 -0.028423516 0.06878726 0.053624373 0.0031283381 -0.109354585 0.072654724 0.13197361 -0.16493414 -0.0023122963 0.15497181 -0.12511171 -0.07242018 -0.041667726 -0.0012027381 -0.01917626 -0.12329078 -0.09654074 -0.08046995 -0.07822262 -0.10703944 -0.028232152 0.02442241 0.024682403 0.13839069 0.039929897 0.120219976 0.02637122 0.1502105 0.038604457 0.14361309 0.018918509 0.051093176 0.03189528 -0.051052425 -0.020817792 -0.104669474 -0.04310411 -0.005900922 0.105623595 0.012269017 0.035010733 0.11244638 -0.07663884 -0.04517099 0.049821433 -0.15090391 0.024455113 -0.2184621 -0.002466742 0.06509987 0.110595256 -0.14703898 -0.0160536
is -0.08542277 0.13623746 -0.05146321 -0.021827549 0.31523132 -0.05367656 0.1830374 -0.045393016 0.07809137 0.19414647 -0.09491271 0.10106162 0.075400144 0.0122372415 -0.054846324 -0.11108588 0.16960426 0.02219792 0.0793793 -0.006348039 -0.11123621 0.12431297 -0.05042257 -0.0528826 0.063782156 -0.02180191 0.10608749 0.056547143 0.02497333 0.055219032 0.11585799 0.08331557 0.003774209 -0.16931634 0.1706777 -0.090043515 -0.09788175 -0.05636955 -0.06098421 0.0097882 0.0023226617 0.048875693 -0.100929335 -0.07281414 -0.07410544 0.037994616 -0.12000549 -0.21480606 0.08671138 -0.093766 -0.084014565 -0.070692435 0.043144703 0.061018977 -0.21491343 -0.11264754 0.20605658 -0.044481963 -0.013138121 0.027561639 0.12297015 -0.013963965 -0.22439975 -0.060062252 -0.12211128 -0.048311856 -0.040918257 -0.05180173 -0.10668163 -0.13601004 0.07740397 0.07591931 -0.017709149 -0.12111874 -0.0017565449 0.092418835 0.088373676 0.038013883 0.16126782 0.05774647 -0.008385089 -0.16648634 -0.053219315 0.059695013 -0.045934696 -0.04717752 0.09552573 -0.10707823 0.03221793 0.14516264 -0.14663717 0.05887317 -0.025617177 -0.045516472 0.08510005 0.0969001 -0.070136495 -0.06636308 -0.011287174 0.038883436
ace -0.1333806 -0.011205089 0.0063305 0.0145287635 0.09067299 -0.0596474 0.19853143 0.0066201994 0.16502556 0.04855286 -0.19189523 -0.058978226 0.031981733 0.016410379 -0.159947 -0.09468633 0.085346304 -0.008684067 0.026716776 0.06874478 -0.096850075 -0.101631396 -0.0054620956 -0.05074619 -0.05620264 0.06057878 -0.005349529 0.06818639 0.13813819 0.18478148 -0.07596006 -0.16748072 -0.16161357 -0.047038004 -0.0017172284 -0.08600804 0.102054134 0.2047534 0.073553324 0.07570913 0.062136218 0.03356248 -0.052441843 0.07649826 0.081405014 0.12802266 0.078764595 -0.11680874 0.14082363 0.018372646 0.0020813625 -0.04614296 0.12821423 0.022060324 -0.16185756 0.039813243 -0.038748894 -0.1845083 -0.15216513 -0.16388877 -0.11367826 -0.07676184 0.02711302 -0.07967966 -0.15192285 0.0023320056 -0.05373826 0.15164948 -0.06928624 0.056157637 0.03773966 0.0789364 0.11399747 0.05503973 -0.08914932 -0.029424537 0.12972277 0.25397116 0.04677477 0.048060466 -0.048195895 0.0031462535 -0.018177548 0.108097345 -0.17843066 0.14713536 0.05023605 -0.028099502 0.1230604 -0.08557331 -0.13220875 0.0671637 -0.16307637 0.0056958473 -0.13845238 0.054634422 -0.07919634 -0.085015886 0.061834574 0.010297969
outside -0.017008608 -0.0380875 0.122593425 -0.14686918 0.102553755 -0.13141105 0.11865389 -0.0060559683 0.046172388 0.031607285 0.16158372 0.07134953 -0.010170565 0.05552708 -0.11404932 0.009168524 0.1109042 0.083936974 0.044621877 0.064665414 -0.011959927 0.0499064 -0.021494627 -0.0859078 0.06533558 0.078420684 0.12143987 -0.034406897 -0.0056049596 0.016695628 0.15170467 0.0012604382 -0.040368006 -0.040245876 0.14661704 -0.13271299 0.13286169 0.07368985 -0.05006024 -0.052166767 0.09558757 0.100854956 -0.02619152 0.020598544 0.010457296 0.10261863 0.027197603 0.08048151 0.119224265 -0.06505878 0.11406039 -0.12582667 0.14757103 0.14261664 -0.04134938 -0.07383607 0.24784243 -0.04822023 -0.058280554 -0.0423321 0.12808049 0.08303571 -0.24526657 -0.07239826 -0.059795562 -0.11576511 -0.11740686 0.21766497 0.051449046 -0.075281516 -0.03285433 -0.098013006 0.08420854 0.15448196 0.11715351 -0.021179749 0.13282156 0.19309048 -0.11067756 0.06692897 0.0007853359 -0.013607189 -0.05195594 -0.19578645 -0.099408925 0.05000593 0.16017994 -0.10876185 0.03881121 0.011826634 -0.18743937 0.007532307 -0.056126337 -0.05115435 0.01593815 0.1548183 0.008002561 -0.1955342 -0.049565505 0.087982066
unable -0.13818707 0.037303604 0.09827915 -0.048319083 0.2383843 0.023151126 -0.17754973 0.034069736 0.08278114 0.14007527 0.013582308 -0.026334941 0.10751411 0.052963335 -0.091288425 -0.052348115 0.058135446 -0.029339362 -0.01064899 -0.025337275 -0.07849552 -0.0078056334 -0.006168194 -0.10668049 0.05177595 0.07417235 0.051941283 0.12433742 0.025575697 0.100086026 -0.019286113 0.08622218 -0.06886362 -0.10223432 0.18260244 -0.1672518 -0.010322475 0.0098763155 0.088085435 -0.032377668 -0.0125983525 0.11972935 -0.043649092 -0.13511664 -0.13856944 0.05582448 -0.08005835 -0.12253359 0.107767895 -0.093214154 -0.04381904 -0.05547868 0.08994116 0.04461532 -0.24828039 -0.18683879 0.17674914 -0.07480168 -0.022753505 0.059122942 0.09337378 -0.016010491 -0.22988255 -0.038419697 -0.13498668 0.0881905 -0.2066847 -0.021162871 -0.03505721 -0.13109593 0.16427258 0.039998483 0.05691246 -0.033695575 0.07793672 0.114958405 0.09303205 0.033192314 0.08262777 0.04862727 -0.10319461 -0.11141959 0.055263467 0.0631958 -0.10291733 0.0017430125 0.010693351 -0.18546695 0.060652785 0.028326027 -0.18401074 0.08283004 -0.091648236 -0.15032153 -0.0746197 0.06611943 -0.14030306 -0.12598328 7.25286e-06 0.03920608
struggles -0.12237786 0.060328484 0.17962779 0.045269113 0.09288312 -0.040357392 0.04115382 0.029024925 -0.06596879 -0.036975436 0.016944904 -0.010082416 0.15004003 -0.04560869 0.06998121 -0.088094875 0.055844948 0.08600337 -0.008250554 0.013541206 0.057216793 0.033093963 -0.11975699 -0.0021946905 -0.05537994 -0.014356093 -0.04210078 0.16334143 -0.033473782 0.09797188 -0.02511396 -0.14922838 -0.15371798 -0.09645633 0.23522756 -0.12849826 0.027525114 0.045272738 -0.06951691 -0.15238719 0.04278339 0.13501349 0.003578739 -0.14927319 -0.012992228 0.12410387 0.022247784 -0.02365792 0.0004002367 -0.11706038 -0.06409922 0.022757607 0.00045370997 -0.03738855 -0.16896127 -0.22118026 0.25541848 -0.057399206 0.026320713 -0.16777493 0.06557483 -0.015923375 -0.22702089 -0.042673472 -0.12866834 -0.06800316 -0.111203395 -0.059311744 0.011701428 -0.107895784 0.008772473 -0.06369406 0.051132835 0.015019154 -0.043185845 0.124604255 0.0925028 0.031961743 0.021568652 0.04796951 -0.12793124 0.036017306 -0.20819983 -0.0629136 -0.14838174 0.07518792 -0.07611435 -0.18890478 -0.018433366 -0.051210113 -0.15928954 0.06664612 -0.1524524 -0.13612702 -0.086988956 0.04562232 -0.13189375 -0.16126649 0.003100832 -0.041335825
puts -0.06534601 0.05960765 0.09502267 0.014471187 0.08148353 -0.077312484 0.23955567 0.027021006 0.04810776 -0.022625977 0.05789088 -0.009983874 0.07881184 -0.14143105 -0.007099628 0.00922489 0.017551403 0.11212735 0.09524121 -0.039153535 0.018145457 0.08150442 0.09752843 -0.018883843 0.0136679225 -0.021735 0.08802587 0.00938448 -0.12988046 0.2098123 0.009600906 -0.2301257 -0.22379926 -0.13861784 0.10040837 -0.113215916 0.07260882 0.05345339 0.08748527 -0.16023205 0.1618592 0.09663911 -0.067994215 -0.16208135 -0.0035843477 0.09011616 0.08751393 -0.11039622 -0.12345467 -0.029702686 -0.026209114 -0.05709414 -0.0025292193 -0.0019381767 -0.050887108 -0.10410165 0.2396534 0.05010051 -0.011079026 -0.21283105 0.20091155 -0.07926574 -0.15612984 -0.03590641 -0.06372082 -0.1699682 -0.079839125 0.11470344 0.04332676 -0.045760635 0.01207384 -0.085298255 0.049610227 0.016038977 0.013951227 0.15132952 0.15673971 0.057954345 -0.077319704 -0.121827364 -0.029989881 0.12190852 0.046032466 -0.05242294 -0.019454766 -0.06807956 0.025526159 -0.12169216 0.04841772 0.04669919 -0.07813564 -0.020069746 -0.1535864 -0.08593529 -0.080280095 -0.036624204 -0.07044334 -0.19221176 -0.03869644 -0.06949271
into -0.01919651 -0.014865055 0.18895063 -0.1209444 -0.07557683 -0.10387867 0.11290087 -0.12918986 0.05020411 -0.040743105 0.03401587 0.08261823 -0.012634901 -0.060084667 -0.08662141 -0.0700746 0.12336141 0.03205331 0.09802218 0.109411895 0.040707167 -0.05393763 0.015158822 -0.07973672 0.010564304 0.07881575 0.109101646 0.29434183 0.007220741 0.009798938 0.10958896 0.09566019 -0.12970775 0.0021485027 0.18159191 -0.2268347 0.06819109 0.076422185 -0.07363742 -0.08158564 0.068621844 0.111725785 2.0808438e-05 -0.15387963 0.06749223 0.039238237 0.12191409 -0.025264708 0.019104954 -0.07315175 0.050260298 -0.028781466 0.071993284 0.07985996 0.031543903 -0.10278479 0.17971322 0.041916005 -0.08868808 -0.1604097 0.015563844 0.10404445 -0.18547072 -0.15208898 0.038411953 0.00023848869 -0.16344191 0.21803692 0.10115481 -0.053193666 0.06307738 -0.07889921 0.058030218 0.21713993 0.06569107 -0.033856317 0.03524578 0.099481225 -0.12467513 0.17557365 -0.01210144 0.08462276 -0.047205478 -0.1431409 -0.19075754 -0.021311557 0.105271734 0.0017470642 0.024112588 0.006499778 -0.14400761 0.023033215 -0.15618877 -0.026782291 -0.010043488 -0.048873432 0.0038588676 -0.024576282 -0.03772654 0.05420271
put -0.15819903 0.0036376505 0.1495711 -0.035315324 0.16638078 -0.027314551 0.129319 -0.04440442 0.05875503 0.008939876 -0.062313825 -0.04166829 0.15629226 0.059822723 -0.060761385 0.08785062 -0.01697859 0.023453757 0.054153074 0.002221406 -0.0001643833 0.034275673 -0.004987612 -0.10799828 -0.014035574 0.02783241 -0.024438916 0.19825009 -0.09441507 0.18162742 -0.07582999 -0.29374477 -0.109653614 -0.09084728 0.11141435 -0.1407821 0.020842697 0.095632985 0.020922901 -0.22552553 -0.045272183 0.12121238 -0.028438773 -0.062400144 -0.09147935 0.0041535236 0.10331062 -0.04657518 -0.07263953 -0.015409654 -0.031980287 -0.016110571 0.08764335 -0.019078815 -0.12961061 -0.14724362 0.17232534 -0.05590877 -0.000836097 -0.13808227 0.07560558 -0.12756693 -0.13342786 -0.06466589 -0.06953186 -0.1909479 -0.08339913 0.0037611208 0.017305478 0.111928105 0.08870885 0.037274953 0.18114859 -0.012307234 0.004397614 0.14628087 0.15747651 0.15253064 0.062229138 -0.032524273 -0.10298996 0.002149835 -0.09407727 0.037143175 -0.07645256 -0.024611035 -0.0129165165 -0.13010393 0.0808655 0.020090284 -0.16136299 0.0597967 -0.15234374 -0.12935859 -0.09319615 0.007993891 -0.17245397 -0.108602755 0.020702764 -0.0981102
angled -0.16452666 0.12332367 0.025226025 -0.026698735 -0.026474783 -0.15798958 0.15391676 -0.14141954 0.08072554 0.016842952 -0.075506404 -0.032618545 0.10171101 -0.102969304 -0.08723311 -0.061886154 -0.006650696 0.116985776 -0.0839382 0.08883752 -0.08038164 -0.0023195464 0.014032824 -0.11419739 -0.061315812 0.022377787 0.10546777 -0.00674453 0.10083192 0.03979719 0.092027 0.010034058 -0.22174464 -0.026887497 0.14899318 -0.04106748 0.023880124 0.011202072 0.11293767 0.049203012 0.12507242 0.08483039 -0.06957348 0.040309515 0.11899524 -0.0053990474 -0.007777042 -0.07396808 0.28825226 -0.045194518 0.025215412 -0.040241975 0.14643404 0.08146691 -0.20194386 -0.0418907 0.04101296 -0.22810306 -0.05494657 -0.08664682 -0.0727144 -0.044106316 -0.08075933 -0.11509136 -0.13618588 0.027476627 -0.0033023816 0.1916282 -0.120030165 -0.0780807 -0.07055907 0.05026962 0.07706767 0.10279877 -0.10840489 -0.00064990326 0.020534927 0.22579364 -0.0015329717 0.018326042 -0.096144415 0.12368216 -0.100118734 0.044214576 -0.14913633 0.085443564 0.10151961 -0.11190147 0.04779163 0.014806765 -0.1365263 0.029653694 -0.20167139 -0.049866337 -0.07460646 0.052112434 -0.11095051 -0.17067036 -0.015755732 -0.030711226
clear -0.06670523 0.0050780983 0.09379578 -0.049707845 0.16670921 -0.10480857 0.046217717 -0.16780323 0.099348515 0.031829443 -0.08442247 0.17248902 0.060965642 0.07965389 -0.095723875 0.018704865 0.09476658 -0.016527591 0.19275285 0.16001515 -0.07389159 -0.051109076 -0.09599313 -0.055468097 0.007853927 0.051001765 0.03875409 0.21705523 0.11519068 0.11195642 -0.0020191022 -0.04881021 -0.058550727 -0.07722451 0.20935212 -0.1959388 0.008670989 0.034571856 0.005191824 -0.12842597 -0.072569795 0.041379858 -0.11459371 -0.12047369 -0.09159381 0.10696571 0.08571228 -0.09390287 0.1038457 -0.06433202 0.06823892 -0.037751485 0.047390904 0.06311168 -0.16617267 -0.04157419 0.13494544 -0.07385098 -0.12430717 -0.020532172 -0.044209316 0.14510538 -0.1814514 -0.16308573 -0.16284238 -0.08648696 -0.16520222 -0.024688045 0.119518444 0.0171075 0.07868237 -0.071655944 0.00063126493 0.05648997 -0.0013973735 0.084511615 0.12816015 0.0048581394 0.1033145 0.160522 -0.071670145 -0.098885216 -0.124800436 -0.028603088 -0.18033597 0.09850667 0.044361487 -0.03648422 0.030226873 -0.010384701 -0.19406702 0.17164348 0.0017134269 -0.012237555 -0.029100249 0.03400827 -0.047622256 0.0076452647 -0.06367713 0.11312106
aimed -0.058884848 0.12312719 0.06683598 0.07244056 0.08921246 -0.038071536 0.21522331 -0.038856912 0.12314 0.03355589 0.0147772 0.07357678 0.11294263 -0.1634117 -0.07635381 -0.08506289 0.11233341 0.11680902 0.10216287 0.08392049 -0.12294779 0.10060796 -0.023499686 -0.005044931 0.018782735 0.045766525 0.033046048 0.10218189 0.11911044 0.16338639 -0.009421382 -0.19785087 -0.21245146 -0.05325558 0.14242156 -0.006769174 0.074415736 0.09940063 0.0916923 0.010451035 0.10392228 0.089928515 -0.16080497 -0.07812388 -0.040969815 0.17604637 0.10893756 -0.18756546 0.16225383 -0.058429677 0.063423924 -0.066570014 0.06078606 0.047097173 -0.145525 -0.010761699 0.031143202 -0.11806155 -0.098712616 -0.21054655 0.043744333 -0.0018311437 -0.040894866 -0.08525994 -0.21181661 0.13053057 0.013532793 0.040083837 -0.07938232 -0.03366431 -0.09358495 -0.006883899 -0.05798493 0.03684786 -0.15904492 0.07681645 0.13321607 0.114128694 0.038566515 0.07226025 0.006636202 -0.009936947 -0.13106674 0.09453601 -0.06392723 0.1632446 0.020861171 -0.09092684 0.11428848 -0.056570742 -0.08732872 0.12134836 -0.13662127 -0.077359036 -0.039162833 -0.05874263 -0.11280858 0.009314636 -0.087766856 0.02187613
for -0.13506398 -0.04429506 0.10568636 -0.084308796 0.096738465 -0.17154516 0.06190598 0.049582865 0.043559305 0.06430626 0.06802633 0.13824104 0.12491139 -0.15958066 -0.09859134 0.07102343 0.07477229 0.04498908 0.19092438 0.0711089 -0.0038441555 0.08856727 0.15191296 -0.057653558 -0.029642956 -0.044018764 0.103187226 0.05454917 -0.030690718 0.225948 0.09855435 -0.21605732 -0.03916627 -0.26396912 0.15124932 -0.105928786 0.033964314 0.06216166 0.18846278 -0.20168124 -0.043989193 0.10043938 0.05194625 -0.02689688 0.06796863 0.10351148 0.04630564 -0.054250136 -0.06297509 0.046125196 0.10670984 -0.14401288 0.062306058 0.104060166 0.06542278 -0.08879115 0.15453805 -0.15565324 -0.03961223 -0.13493459 0.09135606 -0.008548557 -0.15024573 -0.05061285 -0.05096413 -0.130295 -0.081787586 0.030652283 0.073035866 -0.026611485 -0.10797562 -0.016055275 0.01585842 0.104451254 0.02825247 0.049216755 0.17982063 0.123815104 -0.10283267 0.00055780297 -0.028939215 0.06915522 -0.10287491 -0.050458703 -0.08765986 -0.057560068 0.04625825 -0.12598288 0.055220075 0.14626518 -0.10943107 -0.05353153 -0.030922942 -0.033560384 -0.026348498 0.04425277 -0.13967617 0.041152965 0.047194045 -0.026637793
and 0.0132238725 -0.020197583 0.18096817 -0.013161059 0.0129782 -0.1922095 0.20552334 -0.18015712 -0.0603279 -0.044023827 -0.049800854 0.09757294 -0.018675474 0.04357116 0.06412063 0.07644725 0.065308884 0.028552243 0.16575088 0.102102056 0.09514051 -0.009023027 -0.0059615183 0.014633037 -0.04297736 -0.027330557 -0.0030933782 0.12948044 -0.03991052 0.07130562 0.011372191 -0.26193926 -0.029306097 -0.048663042 0.13073647 -0.08260336 0.13425697 0.12387384 -0.10369821 -0.25094804 0.002349704 0.10085065 -0.012765252 -0.11157666 0.092191555 -0.046748325 0.2579014 -0.021827843 0.057205565 0.043093156 0.04046387 0.013606272 -0.021560444 -0.024382262 0.07962483 -0.07895728 0.15580751 -0.18749984 -0.071958706 -0.2395966 0.07201641 0.005741548 -0.1265114 -0.13108154 -0.020371176 -0.19697544 -0.04848833 0.14688295 0.036757987 0.047940567 0.0821948 -0.064396314 0.08954792 0.18719581 -0.0050005685 -0.07093784 0.10465688 0.0816809 -0.015629606 -0.022649888 0.031619318 0.115451545 -0.0937171 -0.0076061445 -0.07858153 -0.02364466 0.028002143 -0.08401001 -0.0637316 -0.035419367 -0.13447623 0.014032345 -0.13389087 -0.060968913 -0.0036608593 0.0034291775 -0.044927713 0.033147443 -0.1208123 -0.13086408
only -0.13471764 0.12429919 0.12534603 0.0484787 0.134327 0.097591415 0.14048089 0.013247779 0.06642668 -0.08090928 0.07974062 -0.11062752 0.2072993 -0.043164782 -0.062446546 -0.0020083042 0.13816553 -0.024856215 -0.0017153315 -0.021469891 -0.077612884 0.05975817 0.010042065 -0.085695975 -0.048626903 0.03577257 0.06982689 0.21827142 0.07880317 0.12758787 -0.0009621169 -0.12565029 -0.06548743 -0.023024866 0.1988314 -0.1220964 0.13534191 -0.024177868 0.04863642 -0.047440086 -0.004141167 0.14170535 -0.057179958 -0.064931184 -0.1275331 0.11108807 0.10879659 -0.12323072 0.0018997754 -0.15220846 0.013832022 0.0042765005 0.09509466 -0.016536277 -0.05828027 -0.001554053 0.17983605 0.16112229 -0.015137598 -0.1015981 0.20430194 0.020071318 -0.19528371 -0.16392769 -0.11009269 -0.052313294 -0.023370676 0.036212433 -0.034206875 0.01826945 -0.0037441475 -0.044144597 -0.12192288 -0.032480337 -0.08557832 0.110493444 0.14120106 0.19669266 -0.027892495 -0.02875786 -0.0627576 -0.02925874 -0.07628734 -0.010683005 -0.08612845 0.12703335 0.0020127362 -0.08285223 0.078307174 0.07253261 -0.22071391 0.09437348 -0.12985481 -0.1640297 -0.02316996 -0.023497848 -0.17532073 -0.10206893 0.01758589 0.021754555
kick -0.21681872 0.103661716 -0.026743881 0.0026332347 -0.047425438 -0.0838601 0.07995559 -0.13307612 0.0327303 0.047632616 -0.03463086 0.016645826 0.18307762 -0.010433415 -0.09854164 -0.10992496 0.009039107 0.08461688 0.008175778 0.12226141 -0.077109516 0.026904978 -0.005826456 -0.13483733 -0.044668246 0.015217064 0.12482646 -0.10183282 0.124343954 0.15113631 0.051557217 -0.07609758 -0.20220214 -0.10486319 0.08360499 0.12909059 0.12383422 0.055661872 0.053334855 -0.045214478 0.047790803 0.074254885 -0.020971451 -0.043800518 0.11941904 0.059685085 0.07521708 -0.14341623 0.1786103 -0.11161346 -0.09033672 -0.035325665 0.13559937 0.06930007 -0.18518691 -0.06208852 -0.11238702 -0.146604 -0.10101104 -0.13378595 -0.017580831 -0.04834916 -0.011807209 -0.18455501 -0.17299323 -0.09355357 0.07293423 0.14543478 -0.07419437 -0.04002128 -0.029976144 0.025578083 0.07946208 0.12297753 -0.015850348 0.10361683 0.11078349 0.16931877 0.032245927 -0.01529374 -0.14464249 0.091827385 -0.05773467 0.076519676 -0.017335689 0.06510198 0.036599267 -0.14780311 0.047577895 -0.026268065 0.019277865 0.0700091 -0.2514729 -0.14672136 -0.0970047 -0.028799567 -0.19185725 -0.052927572 0.031457186 0.0062287706
keep -0.12791765 0.040131982 0.21219715 -0.057283565 0.14768298 -0.11595899 -0.0858348 -0.16206737 -0.090169355 0.15267733 -0.03705619 0.09604915 0.09966246 0.032872442 0.019314203 0.045517594 0.07961743 0.0027184263 0.08022514 0.10635212 0.02850974 0.062797986 -0.092725284 -0.071547896 0.028146757 0.018536296 -0.02806371 0.19078778 0.006353425 0.06668773 -0.034271665 -0.004080847 0.026466893 -0.096852496 0.16475806 -0.12800626 0.012460283 0.112069145 -0.138753 -0.25122803 -0.04194287 0.04152108 0.04783017 -0.082636766 -0.0706346 -0.1530707 0.078960516 -0.0042667394 0.12718369 -0.015702326 -0.087092556 -0.03370335 -0.007163963 0.03411658 -0.13542648 -0.16742331 0.26227847 -0.24991451 -0.04743341 0.08665763 0.059339672 -0.038656566 -0.19207604 -0.0014542644 -0.029135406 -0.06403519 -0.18787198 -0.0016233944 -0.052639335 -0.02372213 0.1001263 0.015937464 0.088576086 0.041954063 0.08626992 0.038339827 0.062126797 0.03215288 0.08279772 0.15583523 -0.12545907 -0.033904944 -0.08316557 0.08578076 -0.12195117 -0.07604302 -0.05758432 -0.15593654 -0.04626659 -0.08286341 -0.091356695 0.016887903 0.0028193248 -0.10590433 -0.120259225 0.010016773 -0.14365225 -0.129085 -0.04897173 -0.012698296
with -0.1889125 0.040524364 -0.036717623 0.016087893 0.10643332 0.083062634 0.055413824 -0.12805353 -0.05333499 0.14771752 0.061898727 -0.0067692413 0.19919825 0.10648123 0.015280077 -0.076667376 -0.1470093 0.057755914 -0.14384943 0.11488078 -0.027232762 0.08740836 -0.11735914 -0.093716905 -0.04644778 -0.03853761 -0.044030894 0.14474234 0.16481419 0.01064092 0.00044955307 -0.07744567 -0.09825028 -0.09333906 0.10322436 -0.0843956 0.097428575 0.1522309 -0.14596441 -0.21834308 0.0123507995 0.045330778 0.071824916 -0.08909692 -0.018547557 0.027300708 0.006560485 -0.03428383 0.1548061 -0.017715737 -0.03580545 0.08021452 0.071590796 -0.060109206 -0.15455116 -0.092264034 0.00858647 -0.25208557 -0.11098926 -0.07260396 0.08248069 0.014808872 -0.043076113 -0.052220006 -0.13802344 -0.107518524 -0.07138857 -0.0307811 -0.022621633 -0.075975105 0.04809985 0.10631475 0.1834759 -0.04997279 0.017502181 0.03480941 -0.010823853 0.07068607 0.10897128 0.0024446934 -0.161281 0.035306014 -0.04149906 -0.049809627 -0.022287704 0.07196544 -0.048948582 -0.1393509 -0.03093128 -0.1267369 -0.09494589 0.035597682 -0.17905565 -0.16186783 -0.10571271 -0.008369799 -0.20167856 -0.20253313 0.12338156 -0.053468626
bodyline -0.15978104 0.116205186 0.0534544 0.028413713 0.07702321 -0.04630369 0.10915605 -0.033189576 0.05729502 0.059873004 -0.035873987 -0.01621254 0.13323957 -0.11244667 -0.06389067 -0.0903252 0.05961561 0.14761563 -0.01827627 0.070206635 -0.052028652 0.016270414 0.032229465 -0.046734143 -0.0040241415 0.011916658 0.041528594 0.028129086 0.12242337 0.18186155 -0.0040826844 -0.013963284 -0.27964234 -0.105336584 0.0495854 -0.05480345 0.045585223 0.1217089 0.08770718 0.05012886 0.17963053 0.07198534 -0.015492217 -0.113931514 0.09812613 0.056289554 0.013918722 -0.21947715 0.18270966 -0.06671486 -0.035038833 -0.062328283 0.061902132 0.047234654 -0.17723945 -0.0020783395 0.08600581 -0.15978321 -0.1185895 -0.16558167 0.03486127 -0.09440501 -0.058104474 -0.04942814 -0.13238297 0.009371305 -0.043211937 0.14104307 -0.10808582 -0.11662638 0.08978473 0.079363026 0.035400704 0.027284965 -0.0149603505 0.0664688 0.12211748 0.19550611 -0.00840943 -0.034639746 -0.15039888 0.073453106 0.018269397 0.026650839 -0.056232914 0.044058237 0.009627484 -0.11092669 0.029388078 -0.015337924 -0.07779686 0.04064058 -0.29635373 -0.12300169 -0.22695465 -0.08035112 -0.1395466 -0.109448254 0.035593823 -0.06222955
high -0.1437285 0.051151384 0.15544896 0.047476083 -0.0065105124 -0.0110460175 0.07683261 -0.08046887 0.03411403 -0.0906892 -0.055180036 -0.08072869 0.04754347 -0.12891348 -0.02007115 -0.0094344625 0.08128334 0.12381328 -0.1088271 0.056702364 -0.010269454 0.013503827 0.06282953 -0.03304778 -0.081727706 0.017424423 0.027776133 0.0009643514 0.15057786 0.2399898 0.000929023 -0.19160768 -0.23423316 -0.07383058 0.18007313 -0.027107796 0.10757687 0.10419083 0.089875184 0.062463302 0.16563492 0.018301047 -0.0026993016 -0.15361911 0.049126785 0.22872613 0.09229976 -0.0824216 0.12503372 -0.017146412 0.08438661 -0.06205921 0.08054949 0.04212128 -0.13012455 0.029444953 0.0658361 -0.1120692 -0.06956283 -0.10612922 -0.0777114 -0.022946587 -0.054759983 -0.0767361 -0.17601278 0.026066909 -0.03829883 0.12116375 -0.040712614 -0.21257606 -0.06533793 -0.037083793 -0.019227441 0.05785518 -0.11865314 0.018259183 0.10830277 0.11012127 -0.10661553 -0.040952682 -0.13139375 0.16100368 0.032211337 -0.012581986 -0.12641229 0.15760563 -0.028189998 0.00060392625 0.050920576 -0.19230977 -0.11407328 -0.019493178 -0.110882305 0.012996182 -0.22225802 -0.031179998 -0.040833727 -0.14883363 0.02145517 -0.016197555
aims -0.11731793 0.16382106 -0.040562365 0.013505067 0.0549272 -0.11745292 0.14234313 -0.040210996 -0.0071231113 0.030231614 -0.06540641 0.13277511 0.12266656 -0.101267576 -0.021990681 -0.05574828 0.017632522 0.18725933 0.09318168 0.09656336 -0.05016779 0.06587502 -0.045846343 -0.03572785 -0.012450699 -0.017013619 0.025286475 -0.094602406 0.01671279 0.18147294 0.019033184 -0.15114735 -0.15594953 -0.08626875 0.121558905 0.059102744 0.13072056 0.089015126 0.10358467 -0.11629025 0.1582299 0.15820274 -0.0144505985 -0.14048164 0.013964462 0.07432562 0.080483295 -0.16157852 0.15670553 -0.049988836 -0.00812461 -0.044312708 0.0719888 0.06830044 -0.19059026 -0.050378457 0.056964584 -0.13930786 -0.05303866 -0.17261784 0.14171065 -0.089914754 -0.11392424 -0.09491821 -0.19152978 -0.024620118 0.074886955 0.14467561 -0.06618028 -0.08078741 -0.112118594 0.070495754 0.06559349 0.07567717 -0.040349524 0.1487469 0.16300878 0.19672231 -0.004340762 -0.035866294 -0.10303368 0.12114295 -0.028747005 -0.011633472 -0.0012408312 0.034846142 0.032372143 -0.18044128 0.018531136 0.031419072 -0.04514209 0.016373603 -0.21095592 -0.11560237 -0.06410388 -0.05578783 -0.135499 -0.058298036 -0.025219103 -0.037293218
sends -0.1715863 0.0679369 0.081024155 -0.07860575 0.082998194 -0.143451 0.038280033 -0.028974174 0.017917274 0.07285735 0.1203003 0.09270008 0.12571219 -0.15188009 -0.04187871 0.039240807 0.00571109 0.21815652 0.044026803 0.009233357 -0.06699955 0.11922619 0.09255016 -0.04507302 0.064768 0.030435484 0.10083758 0.047861326 0.013783496 0.07411513 0.09975736 -0.0059948424 -0.13900588 -0.18497418 0.14739871 -0.061236747 0.05074874 0.01145643 0.06463779 -0.17014079 0.1900528 0.2288355 -0.07906877 0.034899242 -0.07400705 0.06916469 0.0039628833 -0.091046974 0.122932814 -0.11180952 0.067286916 -0.10419131 0.03021499 0.09645473 -0.041065905 -0.21116348 0.19245146 -0.16610096 0.010712685 -0.018927163 0.09869519 0.0036395304 -0.11821705 0.0018978199 -0.02026215 -0.116544984 -0.106577024 0.22789979 -0.06615391 -0.10978467 -0.047128066 -0.006483863 -0.005554017 0.09384091 0.071324825 0.048167475 0.035188977 0.019347064 -0.12099477 0.037824824 -0.10730083 0.014554203 0.04056177 0.00046502377 -0.01928763 -0.06695471 0.05189829 -0.21071096 0.052866653 -0.027567066 -0.07278165 -0.052135948 -0.10262763 -0.17650971 -0.006762999 -0.04291792 -0.16439848 -0.19323115 -0.0838434 0.030118853
flat -0.056002248 0.037180346 0.1638163 -0.020415105 0.109917566 0.07994421 0.04250354 -0.017145218 0.017793575 0.0072710523 0.08123086 0.019598408 0.105329804 -0.08273716 -0.061719287 -0.14968386 0.020178717 0.018045554 0.00086053653 0.1500381 0.031308215 0.07715745 0.0008466028 -0.09908422 -0.09436706 -0.0024457246 0.08254834 0.23366073 0.086798176 0.14722799 0.10916696 -0.0861165 -0.08774777 -0.01890983 0.06772202 -0.08464484 0.104071245 0.1815754 -0.018056741 0.056011263 0.11065978 0.028251978 0.08458447 0.024052974 0.08290743 -0.06404901 0.09881863 -0.10912189 0.1271938 0.036385797 -0.04133727 -0.084610306 0.09634558 0.06319354 -0.060780298 -0.016467415 0.11224365 -0.13908593 -0.12153582 -0.11339957 0.21720168 0.20838372 -0.058032293 -0.12855433 -0.14845459 0.06438083 -0.03476383 0.055171713 0.114815496 -0.035798512 -0.042257994 -0.09000725 0.041234955 0.12106615 0.03813968 0.015302175 0.09340255 0.18826772 -0.0023709338 -0.034023356 0.008229281 0.028087413 0.13624956 -0.044131696 -0.11949904 0.15992539 -0.02521856 -0.05701179 0.03044299 -0.12515238 -0.2640264 0.13144717 -0.19510712 -0.075724185 -0.1551134 -0.15487774 -0.09799913 -0.019174065 0.10947186 -0.04950741
nice -0.06930229 0.05198322 0.23465702 -0.04512479 0.17033148 -0.06713718 0.027976958 -0.21527845 0.05215781 -0.05109574 0.012319901 0.030450664 0.038938593 -0.012114725 -0.070027284 0.008616325 -0.072482504 0.09142017 -0.068860404 -0.003168128 -0.038328186 0.0018923902 -0.0010051264 -0.09818807 0.0037526384 0.05366225 0.04732905 0.07290835 0.029534986 0.16668959 -0.0051857834 -0.09545145 -0.17076641 0.051139068 0.21577801 -0.14353766 -0.085491106 -0.0001703841 0.059196245 -0.047529228 0.073988095 -0.0027995342 -0.08261512 -0.068622746 0.015363402 0.015391055 -0.030285042 -0.06240535 0.15451919 0.03952252 0.109924495 -0.058839515 0.14084657 0.0332258 -0.16429777 0.0802363 0.2120888 -0.09472023 0.019660706 -0.058881797 -0.00409816 0.05427798 -0.16368628 0.07251462 -0.1649894 0.022242483 -0.19175369 0.12761685 0.070962615 0.030597039 0.08329192 -0.19353814 0.097401805 0.009859866 -0.050583355 -0.018511968 0.027277896 0.035650693 0.006197486 -0.051134575 -0.048980422 0.05014278 -0.009482983 -0.15526347 -0.19589187 0.050408304 0.038666144 0.07267514 0.08527162 -0.19605535 -0.23921777 0.032052375 -0.047579784 0.027956704 -0.2985242 -0.0028662255 -0.03454913 -0.13797404 -0.003981038 0.003202922
volley -0.04351736 0.03253907 0.2504849 -0.038922917 0.033444777 -0.12898313 -0.0011555107 -0.123601444 -0.019978037 0.049462054 0.025989804 0.09186859 0.043988418 -0.011767317 0.04971672 0.14185914 0.028543815 0.14314494 0.07311732 0.13544999 -0.023514602 0.1511373 -0.06363209 0.014444421 0.08458416 0.08243201 0.0006175497 0.11421608 -0.007891497 0.07057668 0.040544976 -0.14016789 -0.10140268 -0.047442272 0.18086587 -0.113411896 0.06668799 0.11212594 -0.12322029 -0.26496407 0.051706377 0.06398351 -0.084875554 -0.14863744 0.0032649906 -0.078239724 0.1462134 -0.00051033025 0.13948098 0.07512657 0.023235854 -0.0807191 -0.019504502 0.06887343 -0.009796647 -0.056984406 0.34529793 -0.1896469 -0.08323986 -0.064201914 0.040925037 -0.0769184 -0.1348976 0.03660509 0.017255925 -0.08010075 -0.19428238 0.0909775 -0.054208938 -0.080907986 0.07331295 -0.06527982 0.070330754 0.07195712 0.046613712 -0.09102912 0.036616996 -0.08016499 -0.041165628 0.030620106 -0.095828235 0.096197404 -0.035349503 -0.08475344 -0.06539648 -0.063802265 0.000452325 -0.046618704 0.027779514 -0.15700197 -0.07509429 -0.07224635 -0.008282654 -0.03432598 -0.1721206 -0.03746263 -0.057078313 -0.18461733 -0.18145569 0.0011317782
produces -0.11942681 0.15713814 0.11787811 -0.024908412 0.1229978 -0.13072829 0.010441221 -0.10195141 -0.084843956 0.042170297 0.07308273 0.102802195 0.10924103 0.012308228 0.026804006 0.014896819 0.022678675 0.15093288 0.047335234 -0.0074925763 0.024442082 0.044903804 0.009195427 -0.008457664 0.015536645 -0.023064082 0.05523246 -0.0029766709 -0.0055438764 0.09948403 0.026059404 -0.0527317 -0.08081505 -0.10407417 0.13897857 -0.10162721 0.033425353 0.034026776 -0.02463909 -0.20027836 0.15016934 0.2170455 0.03714397 -0.11519104 -0.18578716 0.054411743 0.009454603 -0.060951326 0.15578489 -0.113413736 0.049415875 -0.08515247 0.003300054 0.07769936 -0.13578552 -0.18053792 0.25312 -0.1096495 0.020349443 0.0061987466 0.17007495 -0.021298224 -0.16847652 0.060136538 -0.12948672 -0.129367 -0.13131995 0.16928573 -0.05021425 -0.113968655 0.0074127894 0.03897166 -0.017762113 0.043604303 0.03212478 0.099517375 0.102287814 0.13884905 -0.050169922 -0.014722749 -0.1610936 0.024346579 0.06536753 -0.038302846 -0.0313081 0.03843307 -0.0072798724 -0.20810698 -0.040188525 -0.06377063 -0.109327905 -0.020231426 -0.02000086 -0.17157196 -0.092854574 -0.033601534 -0.1353521 -0.25544855 -0.03749055 -0.007978936
huge -0.07503609 -0.02754238 0.012630378 -0.034161877 0.08782242 0.00971375 0.06510418 0.00208476 -0.004622108 0.036630977 -0.08592305 0.024735896 0.0122823 0.03996369 0.017466629 0.06317451 -0.0181779 0.033395957 -0.025423052 0.00905949 -0.038656168 -0.035208914 -0.045998994 0.07441907 0.080561765 0.02083821 -0.025621759 0.12172696 0.037209425 0.06368469 0.020118734 0.038794484 -0.067227185 -0.020412762 0.12629223 -0.29353413 0.0041745165 0.013213761 -0.14996329 -0.09512396 0.13864796 0.036653932 0.0100980615 -0.27911294 -0.029615104 0.072075084 -0.07812181 -0.061728116 0.013281212 -0.08588861 -0.06393646 0.017571662 -0.07393832 0.005394902 -0.19412905 -0.090982445 0.31035948 -0.07972192 -0.021487571 -0.01872938 -0.024503903 0.11344201 -0.23369479 0.037185054 -0.03289541 -0.14147244 -0.30587792 0.087722145 0.12271916 -0.15710647 0.11192277 -0.13974194 -0.03292778 0.06681874 0.112780556 0.08467347 -0.03287401 -0.038027383 0.024385925 0.011457639 -0.10786044 0.010876681 0.08174446 -0.17545095 -0.13395831 -0.011596705 0.017384626 -0.07660297 -0.009518634 -0.17340802 -0.1252186 -0.0075723813 -0.14079249 -0.046779245 -0.19284847 -0.073100045 -0.00062821526 -0.12579094 -0.03429651 0.095231436
arrows -0.14296825 0.16086043 0.051928032 0.0006962432 0.014868069 -0.050065517 0.16319206 -0.0035426754 0.013514568 0.026309814 -0.056623336 -0.0039918823 0.16066507 -0.06139993 -0.037363146 -0.009466247 0.1692382 0.1291669 0.039858073 0.062039524 0.0040037436 -0.050974127 0.040551744 0.028089458 -0.042146526 0.015199572 0.027211012 0.12059338 0.07518781 0.14806655 -0.01808017 -0.0789448 -0.18952559 -0.11325295 -0.0068938895 -0.0072961953 0.04775378 0.09898425 0.039429206 -0.058456294 0.19866185 0.17328276 0.017112428 -0.091113456 -0.102626145 0.11486482 0.0452007 -0.17394958 0.1011107 -0.12268311 -0.09480278 -0.03128946 -0.011993561 0.03548899 -0.14503717 -0.14340599 0.022807587 -0.062515646 -0.09736588 -0.1347573 0.1368323 -0.041111447 -0.020742506 -0.059273638 -0.1659788 -0.059464954 0.039013397 0.19496687 -0.08654445 -0.14925505 0.07727555 0.108522914 -0.04033523 0.03663588 -0.014103202 0.11293876 0.14486937 0.24960235 -0.049404766 0.08334224 -0.13919532 0.00870522 0.06252968 -0.017609827 -0.060083997 0.084938325 -0.020888546 -0.19148792 -0.0027872236 0.018827012 -0.02447784 0.03757107 -0.1534804 -0.16647676 -0.16373289 -0.10440205 -0.17142689 -0.15654014 0.030304942 -0.0057647247
lands -0.020549567 -0.06281709 0.059522476 -0.068977445 0.19681676 -0.0018937497 0.01718358 0.039733306 -0.03129806 0.21965858 0.2199835 0.104232766 0.0080264695 0.0028567214 0.027396293 0.004552098 0.118562534 0.11289294 0.061519332 0.04732417 -0.102089755 0.15769142 -0.08936241 0.03291561 0.13454741 0.042191338 -0.03443219 0.0845432 0.078181766 0.013273502 0.05303893 -0.0235251 -0.010004432 -0.09208048 0.18613547 -0.047863346 0.13289568 0.063320845 -0.14968206 -0.10810035 0.11473103 0.21868633 -0.04509592 0.1317231 -0.09195329 0.07336202 0.060367387 -0.0062375464 0.12573393 -0.06727907 0.117297776 0.011551894 -0.06433744 0.047913797 -0.021985693 -0.20410709 0.2017746 -0.24771568 -0.035074744 0.010802872 0.080063686 0.18499567 -0.18229328 -0.06745452 -0.0032380489 -0.050297037 -0.110164165 0.1913201 0.03646658 0.008599692 0.041874237 -0.04306909 0.0016224774 0.098624475 0.13959229 -0.045084395 0.047720727 -0.019458013 -0.00529685 0.14736241 0.049015306 -0.1506051 0.022079928 -0.03150763 0.016608134 -0.012106969 0.021278515 -0.17635675 -0.0074016587 -0.11048773 -0.14525758 0.053484224 -0.08275697 -0.13890281 0.036467105 -0.010508418 -0.06646421 -0.0020436672 -0.12755628 0.05948578
double -0.06633121 0.042808127 0.2135591 -0.0050110286 0.14714566 0.003771933 -0.08258742 -0.05625762 -0.0026070063 -0.03605317 -0.0061373794 0.018600773 0.0044705784 -0.00014321572 0.0060973507 0.015051159 0.080756426 0.03886049 -0.025451642 0.011157289 -0.03625495 -0.011619933 -0.100145236 0.008195323 0.023741359 0.07425014 0.0066604223 0.114261195 0.041526344 0.19645347 -0.0013902595 -0.05075101 -0.10546343 0.008348154 0.21015286 -0.17873818 0.031160984 0.049445525 0.010481657 -0.008620267 0.092881024 0.056872778 -0.025221478 -0.073956415 -0.06430164 0.07028375 0.023724567 -0.054721992 0.14240786 -0.027517937 0.05369549 -0.0198645 0.03883477 0.044929318 -0.25915378 -0.01636888 0.25344536 -0.047985643 -0.0075571975 0.032292772 0.040680997 0.13917586 -0.19948779 -0.034365345 -0.26106793 0.06398709 -0.22473787 0.102568455 0.123388894 -0.07559873 0.093648136 -0.15063731 0.009071664 0.06242066 0.004550352 0.018590774 0.10594201 0.013935537 0.03113712 0.0043133795 -0.046687637 0.00656877 0.06787012 -0.12236475 -0.23654047 0.11044475 0.0012914788 -0.0330285 0.03171158 -0.19627076 -0.21632116 0.080322005 -0.057083443 -0.009563877 -0.25120902 -0.03572436 -0.026999902 -0.15724134 -0.06414308 0.046105407
inside -0.097387284 -0.07567688 0.123813264 -0.08171355 0.12914103 -0.051733557 0.017506858 -0.10545254 -0.047392372 0.06944768 0.17911856 0.009718453 0.05622622 0.11032716 -0.015124264 -0.009400991 0.06025615 -0.008780117 -0.022726538 0.026619267 0.001225903 0.06130525 -0.06534001 -0.1324246 -0.007205518 0.0558069 0.10421336 0.13680118 0.023378279 0.04398296 0.0885549 -0.030517539 -0.0082680695 -0.034533273 0.23260781 -0.18261383 0.1294622 0.020355716 -0.10450597 -0.1696927 -0.029672869 0.12198487 0.014042281 0.03890533 -0.050908912 0.004251893 0.07716694 0.08334898 0.099991426 -0.052807428 0.041556563 0.025076281 0.12126097 0.011942674 -0.11392457 -0.14580469 0.25350088 -0.07548185 0.0017070109 0.028361555 0.08329376 0.10703319 -0.28063956 -0.11107601 -0.06337895 -0.16289909 -0.17641385 0.121290416 0.073027946 0.01708692 0.0912844 -0.09248836 0.1613329 0.12077624 0.10795823 0.008286205 0.08448269 0.0663583 0.022437053 0.050195705 -0.00063555944 -0.054516863 -0.114187256 -0.08799571 -0.17013483 0.059286043 0.06375447 -0.13368982 -0.008926533 -0.04262179 -0.25343058 0.055432927 -0.07984084 -0.10225536 0.025536267 0.12271841 -0.08423887 -0.15980941 -0.021877011 0.02698317
misses 0.052786913 0.010057876 0.15271117 -0.033596154 0.12606962 -0.01694837 0.029246263 -0.086764775 0.073999606 0.087587714 0.03377753 -0.0051980014 -0.02308715 0.08830053 -0.052400496 0.056399558 0.11615611 0.038765933 -0.010431705 0.097171165 -0.10223667 0.15123221 -0.10582454 -0.0701687 0.115165584 0.12414883 0.034799665 0.13287325 0.07528885 0.1395866 0.039637227 -0.21435925 -0.08322991 0.055640906 0.11016067 -0.1340509 0.14577982 0.16984954 -0.12482996 -0.06848186 0.052360665 -0.02900342 -0.08416857 -0.10845544 -0.076000705 0.084875025 0.1454054 -0.008272196 0.16478604 0.079356275 0.025886094 -0.08932753 0.11189375 0.09081122 -0.23978925 0.03256451 0.17396292 -0.16798936 -0.09954968 -0.044294648 0.0182005 -0.014478072 -0.1401432 -0.07510931 -0.19933304 -0.026581798 -0.101024985 0.0118114855 -0.023298863 -0.090244256 0.119255945 0.001185249 0.15210752 0.065625384 0.036433794 0.0043819556 0.15885654 0.07374509 0.043963004 0.0065772445 0.02173245 -0.012514348 -0.1095929 -0.069290444 -0.07646577 0.1829394 0.043926235 0.0027413862 0.112342425 -0.15801005 -0.15085801 0.035959296 -0.13030946 0.029755097 -0.20640627 0.040925235 0.047749676 -0.06613596 -0.12776025 0.0017595476
manages -0.13594216 0.16894539 0.19689792 0.025320927 0.23894656 0.038283993 0.027649136 -0.054045726 0.0030415684 -0.043589775 0.04089479 -0.023379529 0.16758402 -0.0005967831 0.02472336 -0.027473116 0.06509743 -0.0021200646 -0.038579132 -0.03174737 -0.025382767 0.11344788 -0.0056456337 -0.061736636 -0.035334505 -0.010264886 0.07033801 0.16051178 0.048172936 0.18368335 0.053575642 -0.13529661 -0.038247712 0.05915027 0.28622857 -0.15007438 0.13345113 0.011447213 0.05319425 -0.13845967 -0.031560186 0.07768823 -0.042126216 -0.037759304 -0.09969611 -0.008244983 0.08172508 -0.083510906 0.113597095 -0.12635563 -0.03718492 -0.052383006 0.075766824 0.026171476 -0.1300807 0.06224784 0.22719756 0.04694512 -0.008493789 -0.050144996 0.17869358 -0.0011676861 -0.24000736 -0.13462585 -0.18067613 -0.08093013 -0.10506843 0.017797494 -0.013083574 0.04285545 0.033480655 -0.046947844 -0.072570734 -0.020711077 -0.045090266 0.072404996 0.16890463 0.08699498 -0.017482417 -0.07941281 -0.16866584 -0.016927412 0.032566205 -0.061272513 -0.04632306 0.07667938 0.012977929 0.026028054 0.012679243 -0.020971222 -0.23074123 0.044382393 -0.087972894 -0.12852874 -0.099467285 0.038099397 -0.16913685 -0.14983228 -0.015606919 0.010600455
by -0.11075404 0.080183126 -0.07710206 -0.009134533 0.04249532 -0.07623756 0.17025632 0.07503516 0.031594783 0.13395347 -0.01162315 0.017588934 0.11071697 0.05686608 -0.057809323 -0.06566164 0.02580624 0.13616347 -0.04186924 0.11393765 -0.089312695 -0.055258356 -0.14069225 0.06893314 0.0038738484 -0.006604887 -0.08350868 0.006695848 0.16884261 0.047352873 0.013154551 -0.13615943 -0.15576431 -0.039854415 0.15570283 -0.03888178 0.09470014 0.061733365 -0.10297941 -0.13775623 0.09959101 0.1322617 -0.03246175 -0.049086954 0.07587672 0.14920862 -0.07263935 -0.11166243 0.18014464 -0.09234872 -0.015123823 0.012499832 -0.034117483 0.04055632 -0.15780053 -0.17942159 0.039823275 -0.2679242 -0.14953728 -0.19011301 -0.016654303 -0.072640754 -0.17258583 -0.13597564 -0.07558602 -0.15713549 -0.087185346 0.15334767 -0.11522716 -0.09140913 -0.08099093 0.04568977 -0.035703935 0.041012727 -0.006867015 0.051509995 0.057972297 0.08159 0.06305886 0.11650622 -0.16194403 -0.018389214 -0.10597178 0.0035118412 -0.0019353629 0.036796022 0.023185296 -0.14881316 -0.0016177701 -0.037211597 -0.027059874 0.036021627 -0.22675727 -0.11556712 0.052117538 0.10356767 -0.10050761 -0.13337354 0.04937381 0.08965719
returning -0.1090118 0.017444367 0.117253974 -0.086278565 -0.014440407 0.027655298 0.076447085 0.044034317 0.058986396 -0.012046849 -0.012172945 -0.10381246 0.07747078 0.15139137 -0.056394845 0.095766924 0.112195864 0.08464993 -0.11078774 0.10049884 -0.051048886 -0.03129257 0.06791772 0.02419183 0.002635594 0.13045497 -0.07031542 0.09242048 0.16561157 0.085704505 -0.02003754 -0.219905 -0.15751602 -0.026020717 0.049533352 -0.048106503 0.022882668 0.07159813 -0.20900513 -0.15929706 0.07273487 0.022747442 -0.023434356 -0.1453389 -0.049407594 0.03128168 0.042626694 0.0034513515 0.0011470205 0.038128998 -0.024629697 -0.0009015501 -0.011222873 0.0051606223 -0.06329129 -0.10166442 0.041242827 -0.2109242 -0.04636879 -0.016431043 0.01388074 -0.12918124 -0.040818855 -0.13442129 -0.085434996 -0.16376294 -0.13291973 0.10605616 -0.14081755 -0.1996164 0.124409236 0.04692612 0.0027285179 0.056695983 0.10666123 -0.006156349 0.011402239 0.2165501 0.021015903 0.18326788 -0.14713743 -0.16043855 0.09492981 0.08134846 -0.14788379 0.18796283 -0.023925798 -0.0070341513 0.042864826 -0.16998416 -0.051893413 -0.041165832 -0.05952791 -0.0040320046 -0.08857542 0.07972555 -0.03666251 -0.25010312 0.0021079376 0.15462936
difficulty -0.061342306 0.024403777 0.18488328 -0.027834818 0.0167533 -0.0509957 0.15171133 0.03670627 -0.01098133 -0.056933053 -0.045220546 -0.022246432 0.018243892 0.020064196 0.023413893 0.10141604 0.11625402 0.12910464 -0.030232161 0.09758002 0.010695289 -0.14583017 -0.049245514 0.13439403 -0.024986016 0.055077016 -0.1776978 0.15423262 0.12439671 0.0634021 -0.073915526 -0.10982201 -0.15031908 -0.018461818 0.18287168 -0.121688694 0.051189467 0.10661446 -0.14215164 -0.10735755 0.1604728 0.16413637 -0.00061380025 -0.09991753 0.043954365 0.07952472 0.050943043 0.0076681124 0.07815257 -0.06424661 0.053574998 0.06488122 -0.10176906 -0.024503969 -0.07129771 -0.18090236 0.19462566 -0.22229443 -0.06372629 -0.13002895 -0.016552089 0.005097302 -0.1887917 -0.1667062 -0.05948031 -0.115890756 -0.11924439 0.19152036 -0.059804052 -0.11054647 0.06671431 -0.0050129816 -0.09815023 0.12230429 0.001460791 -0.027176261 0.043542553 0.14741111 -0.040065505 0.19807294 -0.11295162 -0.03906108 -0.059787456 -0.08546681 -0.114134446 0.034168668 -0.035183374 -0.09702608 -0.046677012 -0.083612874 -0.11379005 0.020376688 -0.15250891 -0.08004506 -0.092472866 -0.008554879 -0.016459856 -0.12845954 -0.021572327 0.05350995
faces -0.091335 0.082636565 0.07307019 -0.0062296786 0.059501976 -0.07201232 0.15621302 0.050203033 -0.0031133783 -0.096867345 -0.0830231 -0.002231643 0.035049785 0.08499895 0.03464111 0.07328232 0.0576188 0.1307627 -0.009551031 0.07501129 0.015465709 -0.17215826 -0.06238258 0.13126107 -0.010664871 0.009684484 -0.20896804 -0.0023306787 0.1480718 0.11934826 -0.11735216 -0.1585613 -0.1670795 -0.052151043 0.062342297 -0.062310386 0.10047215 0.14102435 -0.0879596 -0.11566592 0.1676395 0.16327314 -0.04807163 -0.12800576 -0.118734315 0.15940233 0.053891614 -0.020350823 0.1065122 -0.13073167 0.06784321 0.035800703 -0.07883075 -0.030945629 -0.14143348 -0.15211928 0.12574197 -0.16159353 -0.073338024 -0.10803904 0.008074094 -0.061418034 -0.11216338 -0.13172695 -0.15494514 -0.16777839 -0.057323925 0.13403876 -0.09033455 -0.1086441 0.030844808 0.07598071 -0.07900021 0.08433366 -0.024296362 0.07513704 0.11226078 0.12691548 -0.004899373 0.13858385 -0.1673755 -0.08622971 -0.0031923046 -0.038813967 -0.016161628 0.0600237 -0.019093778 -0.14292446 -0.07124189 -0.12720859 -0.07523153 0.047983237 -0.11216149 -0.09964547 -0.03288753 0.00842795 -0.030594394 -0.2070676 -0.05090073 0.06847159
heavy -0.0844684 -0.0038442856 0.13333505 0.039034396 0.00687104 -0.027753023 0.105457775 -0.049499612 -0.04349832 0.010457945 -0.016618816 -0.032027192 0.0708479 -0.079397485 0.026935436 -0.11763194 0.066011906 0.1181209 -0.11050012 0.045717344 0.032398164 0.013623838 -0.05489828 0.02165644 -0.0865409 -0.030145744 0.04407558 0.13472933 0.098593414 0.1135165 0.07263046 -0.07276437 -0.16999234 -0.06917797 0.24023698 -0.15810844 -0.017382951 0.023604939 -0.067855045 -0.026723333 0.1432694 0.034270354 0.045875344 -0.14592762 0.12614574 0.17194025 -0.07647685 -0.06178926 0.07931151 -0.047656678 -0.034752622 0.029739408 0.013517012 -0.009843211 -0.1631036 -0.12778082 0.19507521 -0.11736511 -0.02552724 -0.16188236 -0.029217577 0.121717215 -0.18897867 -0.025203979 -0.15246478 -0.063238636 -0.14369 0.051839475 0.118089624 -0.22285344 0.019566847 -0.12071343 0.036783405 0.05835053 -0.07620897 0.03895145 0.030491611 0.098419964 -0.031655826 0.043197863 -0.05785998 0.11685126 -0.13799334 -0.2429296 -0.20887448 0.08389464 -0.031525496 -0.10642537 -0.018151447 -0.100361824 -0.14989406 0.003374852 -0.124755435 -0.022108886 -0.1973842 0.03266211 -0.048164014 -0.123925045 0.062827915 0.015728181
out-wide -0.10703158 0.062588 0.08493274 -0.0797489 0.14839226 -0.115162775 0.1089196 -0.030729065 0.020322504 0.046878662 -0.008578046 0.06350846 0.0937452 0.0041527892 -0.061993636 -0.024805421 0.19409595 0.09951229 0.046815436 0.10391063 -0.012729854 2.75105e-05 0.042276684 0.019326355 -0.035087544 -0.004864912 0.037922602 0.042286623 0.16026549 0.19771163 0.07130316 -0.0055840826 -0.18368022 -0.098704085 0.08078081 -0.116167314 0.0691915 0.11771034 -0.018973637 -0.029143294 0.06681095 0.04466205 0.03414584 -0.021757526 -0.014368606 0.046794027 -0.029586937 -0.10264392 0.20628373 -0.032483786 -0.0121070305 -0.13795766 0.040749475 0.10879715 -0.1803699 -0.056193564 0.2015665 -0.17313431 -0.1371411 -0.09820481 0.035091728 -0.000742749 -0.15460138 -0.04090191 -0.18668728 -0.089027055 -0.13483895 0.07395455 -0.06468894 -0.14202978 0.08188055 0.08413045 -0.059553485 0.08152582 0.044614915 -9.5632364e-05 0.23339137 0.23140773 -0.04343162 0.11864995 -0.12420396 -0.065030135 0.019057099 -0.10432038 -0.10576964 0.0926721 0.022443661 -0.10474437 -0.03616487 -0.026107114 -0.12745066 0.05021155 -0.08014793 -0.052237343 -0.16472965 0.080645524 -0.086729854 -0.17984541 0.03598186 0.12259148
touch -0.1954807 0.073818125 0.114053816 0.013364784 0.18857901 0.019908762 0.078901045 -0.00074203603 0.04156647 -0.041039553 -0.072835155 -0.041047145 0.19662383 0.11243941 -0.049619064 0.009892467 0.013989754 0.0043586404 0.016915092 0.02436279 -0.062209744 0.0075710267 -0.0686828 -0.078203015 -0.017229287 0.061799474 0.0030238435 0.16662638 0.003608571 0.12875122 -0.014297827 -0.15744635 -0.03242715 -0.01046426 0.18402648 -0.18467256 0.08052228 0.017077647 -0.012174558 -0.20382711 -0.03132754 0.0888891 -0.026389949 -0.079084486 -0.10580785 -0.062356614 0.0917044 -0.05982181 0.01668801 -0.09019641 -0.12887137 0.0040130853 0.08186801 0.00065923296 -0.1773871 0.02274199 0.16567375 0.021180883 -0.021563293 -0.070340544 0.10916593 -0.04477635 -0.1917182 -0.15388362 -0.15693305 -0.1729454 -0.13934352 0.04673182 0.05631959 0.048079602 0.10687084 -0.06439166 0.021595592 -0.0058872513 0.047181387 0.122613885 0.098300196 0.16335629 0.076620154 -0.025482293 -0.21307932 -0.07267188 -0.025023082 0.0051096473 -0.15035643 0.13582513 0.0013048487 -0.048121016 0.057679802 -0.026709184 -0.21617366 0.08465389 -0.16437607 -0.1389045 -0.102988884 -0.0014765324 -0.19767809 -0.09221743 0.01401563 0.017634938
